<?xml version="1.0" encoding="UTF-8"?>
<!-- This network was created in GeNIe Academic, which can be used for academic teaching and research purposes only -->
<smile version="1.0" id="Network3" numsamples="10000" discsamples="10000">
	<nodes>
		<cpt id="Conventional_vs_Organic">
			<state id="State0" />
			<state id="State1" />
			<probabilities>0.5 0.5</probabilities>
		</cpt>
		<cpt id="Cover_Crops">
			<state id="Non_Native" />
			<state id="Bare_Soil" />
			<state id="Native" />
			<state id="Sward" />
			<state id="Annual_Crop" />
			<parents>Conventional_vs_Organic</parents>
			<probabilities>0.2 0.15 0.15 0.2 0.3 0.3 0.2 0.15 0.15 0.2</probabilities>
		</cpt>
		<cpt id="Market_Supply_and_Demmand">
			<state id="State0" />
			<state id="State1" />
			<probabilities>0.6 0.4</probabilities>
		</cpt>
		<cpt id="Region">
			<state id="State0" />
			<state id="State1" />
			<probabilities>0.5 0.5</probabilities>
		</cpt>
		<cpt id="Grape_Price">
			<state id="State0" />
			<state id="State1" />
			<parents>Market_Supply_and_Demmand Region</parents>
			<probabilities>0.1 0.9 0.2 0.8 0.3 0.7 0.4 0.6</probabilities>
		</cpt>
		<cpt id="Weather_Conditions">
			<state id="State0" />
			<state id="State1" />
			<parents>Region</parents>
			<probabilities>0.1 0.9 0.2 0.8</probabilities>
		</cpt>
		<cpt id="Canopy_Management_Practices">
			<state id="State0" />
			<state id="State1" />
			<parents>Weather_Conditions</parents>
			<probabilities>0.5 0.5 0.5 0.5</probabilities>
		</cpt>
		<cpt id="Water_Price">
			<state id="State0" />
			<state id="State1" />
			<parents>Weather_Conditions</parents>
			<probabilities>0.1 0.9 0.8 0.2</probabilities>
		</cpt>
		<cpt id="Tractor_Passes">
			<state id="State0" />
			<state id="State1" />
			<parents>Cover_Crops</parents>
			<probabilities>0.5 0.5 0.5 0.5 0.5 0.5 0.5 0.5 0.5 0.5</probabilities>
		</cpt>
		<cpt id="Soil_type">
			<state id="State0" />
			<state id="State1" />
			<probabilities>0.5 0.5</probabilities>
		</cpt>
		<cpt id="Fertiliser">
			<state id="State0" />
			<state id="State1" />
			<parents>Tractor_Passes Soil_type</parents>
			<probabilities>0.5 0.5 0.5 0.5 0.5 0.5 0.5 0.5</probabilities>
		</cpt>
		<cpt id="Water_Licence">
			<state id="State0" />
			<state id="State1" />
			<probabilities>0.5 0.5</probabilities>
		</cpt>
		<cpt id="Yield_and_Quality_targets">
			<state id="State0" />
			<state id="State1" />
			<parents>Canopy_Management_Practices</parents>
			<probabilities>0.5 0.5 0.5 0.5</probabilities>
		</cpt>
		<cpt id="Agro_Chemical_Mix">
			<state id="State0" />
			<state id="State1" />
			<parents>Weather_Conditions Conventional_vs_Organic</parents>
			<probabilities>0.1 0.9 0.5 0.5 0.5 0.5 0.5 0.5</probabilities>
		</cpt>
		<cpt id="Agro_chemical_regulations">
			<state id="State0" />
			<state id="State1" />
			<probabilities>0.5 0.5</probabilities>
		</cpt>
		<cpt id="Pest_and_Disease_Management">
			<state id="State0" />
			<state id="State1" />
			<parents>Grape_Price Canopy_Management_Practices Weather_Conditions Agro_Chemical_Mix Conventional_vs_Organic Agro_chemical_regulations Cover_Crops Water_Price</parents>
			<probabilities>0.1900000000000001 0.8100000000000001 0.17 0.8300000000000001 0.1200000000000001 0.8800000000000001 0.1900000000000001 0.8100000000000001 0.14 0.8600000000000002 0.1200000000000001 0.8800000000000001 0.16 0.8400000000000002 0.14 0.8600000000000002 0.18 0.8200000000000002 0.16 0.8400000000000002 0.1900000000000001 0.8100000000000001 0.17 0.8300000000000001 0.1200000000000001 0.8800000000000001 0.1900000000000001 0.8100000000000001 0.14 0.8600000000000002 0.1200000000000001 0.8800000000000001 0.16 0.8400000000000002 0.14 0.8600000000000002 0.18 0.8200000000000002 0.16 0.8400000000000002 0.1900000000000001 0.8100000000000001 0.17 0.8300000000000001 0.1200000000000001 0.8800000000000001 0.1900000000000001 0.8100000000000001 0.14 0.8600000000000002 0.1200000000000001 0.8800000000000001 0.16 0.8400000000000002 0.14 0.8600000000000002 0.18 0.8200000000000002 0.16 0.8400000000000002 0.1900000000000001 0.8100000000000001 0.17 0.8300000000000001 0.1200000000000001 0.8800000000000001 0.1900000000000001 0.8100000000000001 0.14 0.8600000000000002 0.1200000000000001 0.8800000000000001 0.16 0.8400000000000002 0.14 0.8600000000000002 0.18 0.8200000000000002 0.16 0.8400000000000002 0.2 0.8 0.2 0.7999999999999999 0.2 0.8000000000000002 0.2 0.8 0.2 0.8 0.2 0.8000000000000002 0.2 0.8 0.2 0.8 0.2 0.8000000000000002 0.2 0.8 0.2 0.8 0.2 0.7999999999999999 0.2 0.8000000000000002 0.2 0.8 0.2 0.8 0.2 0.8000000000000002 0.2 0.8 0.2 0.8 0.2 0.8000000000000002 0.2 0.8 0.2 0.8 0.2 0.7999999999999999 0.2 0.8000000000000002 0.2 0.8 0.2 0.8 0.2 0.8000000000000002 0.2 0.8 0.2 0.8 0.2 0.8000000000000002 0.2 0.8 0.2 0.8 0.2 0.7999999999999999 0.2 0.8000000000000002 0.2 0.8 0.2 0.8 0.2 0.8000000000000002 0.2 0.8 0.2 0.8 0.2 0.8000000000000002 0.2 0.8 0.3800000000000001 0.62 0.36 0.64 0.3100000000000001 0.6900000000000002 0.3800000000000001 0.62 0.33 0.6699999999999999 0.3100000000000001 0.6900000000000002 0.35 0.65 0.33 0.6699999999999999 0.37 0.63 0.35 0.65 0.3800000000000001 0.62 0.36 0.64 0.3100000000000001 0.6900000000000002 0.3800000000000001 0.62 0.33 0.6699999999999999 0.3100000000000001 0.6900000000000002 0.35 0.65 0.33 0.6699999999999999 0.37 0.63 0.35 0.65 0.3800000000000001 0.62 0.36 0.64 0.3100000000000001 0.6900000000000002 0.3800000000000001 0.62 0.33 0.6699999999999999 0.3100000000000001 0.6900000000000002 0.35 0.65 0.33 0.6699999999999999 0.37 0.63 0.35 0.65 0.3800000000000001 0.62 0.36 0.64 0.3100000000000001 0.6900000000000002 0.3800000000000001 0.62 0.33 0.6699999999999999 0.3100000000000001 0.6900000000000002 0.35 0.65 0.33 0.6699999999999999 0.37 0.63 0.35 0.65 0.3800000000000001 0.62 0.36 0.64 0.3100000000000001 0.6900000000000002 0.3800000000000001 0.62 0.33 0.6699999999999999 0.3100000000000001 0.6900000000000002 0.35 0.65 0.33 0.6699999999999999 0.37 0.63 0.35 0.65 0.3800000000000001 0.62 0.36 0.64 0.3100000000000001 0.6900000000000002 0.3800000000000001 0.62 0.33 0.6699999999999999 0.3100000000000001 0.6900000000000002 0.35 0.65 0.33 0.6699999999999999 0.37 0.63 0.35 0.65 0.3800000000000001 0.62 0.36 0.64 0.3100000000000001 0.6900000000000002 0.3800000000000001 0.62 0.33 0.6699999999999999 0.3100000000000001 0.6900000000000002 0.35 0.65 0.33 0.6699999999999999 0.37 0.63 0.35 0.65 0.3800000000000001 0.62 0.36 0.64 0.3100000000000001 0.6900000000000002 0.3800000000000001 0.62 0.33 0.6699999999999999 0.3100000000000001 0.6900000000000002 0.35 0.65 0.33 0.6699999999999999 0.37 0.63 0.35 0.65 0.55 0.45 0.5299999999999999 0.47 0.57 0.4299999999999999 0.55 0.45 0.5900000000000001 0.4100000000000001 0.57 0.4299999999999999 0.5199999999999999 0.48 0.5900000000000001 0.4100000000000001 0.5399999999999999 0.46 0.5199999999999999 0.48 0.55 0.45 0.5299999999999999 0.47 0.57 0.4299999999999999 0.55 0.45 0.5900000000000001 0.4100000000000001 0.57 0.4299999999999999 0.5199999999999999 0.48 0.5900000000000001 0.4100000000000001 0.5399999999999999 0.46 0.5199999999999999 0.48 0.55 0.45 0.5299999999999999 0.47 0.57 0.4299999999999999 0.55 0.45 0.5900000000000001 0.4100000000000001 0.57 0.4299999999999999 0.5199999999999999 0.48 0.5900000000000001 0.4100000000000001 0.5399999999999999 0.46 0.5199999999999999 0.48 0.55 0.45 0.5299999999999999 0.47 0.57 0.4299999999999999 0.55 0.45 0.5900000000000001 0.4100000000000001 0.57 0.4299999999999999 0.5199999999999999 0.48 0.5900000000000001 0.4100000000000001 0.5399999999999999 0.46 0.5199999999999999 0.48 0.55 0.45 0.5299999999999999 0.47 0.57 0.4299999999999999 0.55 0.45 0.5900000000000001 0.4100000000000001 0.57 0.4299999999999999 0.5199999999999999 0.48 0.5900000000000001 0.4100000000000001 0.5399999999999999 0.46 0.5199999999999999 0.48 0.55 0.45 0.5299999999999999 0.47 0.57 0.4299999999999999 0.55 0.45 0.5900000000000001 0.4100000000000001 0.57 0.4299999999999999 0.5199999999999999 0.48 0.5900000000000001 0.4100000000000001 0.5399999999999999 0.46 0.5199999999999999 0.48 0.55 0.45 0.5299999999999999 0.47 0.57 0.4299999999999999 0.55 0.45 0.5900000000000001 0.4100000000000001 0.57 0.4299999999999999 0.5199999999999999 0.48 0.5900000000000001 0.4100000000000001 0.5399999999999999 0.46 0.5199999999999999 0.48 0.55 0.45 0.5299999999999999 0.47 0.57 0.4299999999999999 0.55 0.45 0.5900000000000001 0.4100000000000001 0.57 0.4299999999999999 0.5199999999999999 0.48 0.5900000000000001 0.4100000000000001 0.5399999999999999 0.46 0.5199999999999999 0.48 0.74 0.26 0.72 0.28 0.76 0.24 0.74 0.26 0.7800000000000001 0.22 0.76 0.24 0.7100000000000002 0.2900000000000001 0.7800000000000001 0.22 0.73 0.27 0.7100000000000002 0.2900000000000001 0.74 0.26 0.72 0.28 0.76 0.24 0.74 0.26 0.7800000000000001 0.22 0.76 0.24 0.7100000000000002 0.2900000000000001 0.7800000000000001 0.22 0.73 0.27 0.7100000000000002 0.2900000000000001 0.74 0.26 0.72 0.28 0.76 0.24 0.74 0.26 0.7800000000000001 0.22 0.76 0.24 0.7100000000000002 0.2900000000000001 0.7800000000000001 0.22 0.73 0.27 0.7100000000000002 0.2900000000000001 0.74 0.26 0.72 0.28 0.76 0.24 0.74 0.26 0.7800000000000001 0.22 0.76 0.24 0.7100000000000002 0.2900000000000001 0.7800000000000001 0.22 0.73 0.27 0.7100000000000002 0.2900000000000001 0.74 0.26 0.72 0.28 0.76 0.24 0.74 0.26 0.7800000000000001 0.22 0.76 0.24 0.7100000000000002 0.2900000000000001 0.7800000000000001 0.22 0.73 0.27 0.7100000000000002 0.2900000000000001 0.74 0.26 0.72 0.28 0.76 0.24 0.74 0.26 0.7800000000000001 0.22 0.76 0.24 0.7100000000000002 0.2900000000000001 0.7800000000000001 0.22 0.73 0.27 0.7100000000000002 0.2900000000000001 0.74 0.26 0.72 0.28 0.76 0.24 0.74 0.26 0.7800000000000001 0.22 0.76 0.24 0.7100000000000002 0.2900000000000001 0.7800000000000001 0.22 0.73 0.27 0.7100000000000002 0.2900000000000001 0.74 0.26 0.72 0.28 0.76 0.24 0.74 0.26 0.7800000000000001 0.22 0.76 0.24 0.7100000000000002 0.2900000000000001 0.7800000000000001 0.22 0.73 0.27 0.7100000000000002 0.2900000000000001 0.8700000000000002 0.13 0.6600000000000001 0.3400000000000001 0.8100000000000001 0.19 0.8700000000000002 0.13 0.75 0.25 0.8100000000000001 0.19 0.6900000000000001 0.31 0.75 0.25 0.6300000000000001 0.3700000000000001 0.6900000000000001 0.31 0.8700000000000002 0.13 0.6600000000000001 0.3400000000000001 0.8100000000000001 0.19 0.8700000000000002 0.13 0.75 0.25 0.8100000000000001 0.19 0.6900000000000001 0.31 0.75 0.25 0.6300000000000001 0.3700000000000001 0.6900000000000001 0.31 0.8700000000000002 0.13 0.6600000000000001 0.3400000000000001 0.8100000000000001 0.19 0.8700000000000002 0.13 0.75 0.25 0.8100000000000001 0.19 0.6900000000000001 0.31 0.75 0.25 0.6300000000000001 0.3700000000000001 0.6900000000000001 0.31 0.8700000000000002 0.13 0.6600000000000001 0.3400000000000001 0.8100000000000001 0.19 0.8700000000000002 0.13 0.75 0.25 0.8100000000000001 0.19 0.6900000000000001 0.31 0.75 0.25 0.6300000000000001 0.3700000000000001 0.6900000000000001 0.31 0.8700000000000002 0.13 0.6600000000000001 0.3400000000000001 0.8100000000000001 0.19 0.8700000000000002 0.13 0.75 0.25 0.8100000000000001 0.19 0.6900000000000001 0.31 0.75 0.25 0.6300000000000001 0.3700000000000001 0.6900000000000001 0.31 0.8700000000000002 0.13 0.6600000000000001 0.3400000000000001 0.8100000000000001 0.19 0.8700000000000002 0.13 0.75 0.25 0.8100000000000001 0.19 0.6900000000000001 0.31 0.75 0.25 0.6300000000000001 0.3700000000000001 0.6900000000000001 0.31 0.8700000000000002 0.13 0.6600000000000001 0.3400000000000001 0.8100000000000001 0.19 0.8700000000000002 0.13 0.75 0.25 0.8100000000000001 0.19 0.6900000000000001 0.31 0.75 0.25 0.6300000000000001 0.3700000000000001 0.6900000000000001 0.31 0.8700000000000002 0.13 0.6600000000000001 0.3400000000000001 0.8100000000000001 0.19 0.8700000000000002 0.13 0.75 0.25 0.8100000000000001 0.19 0.6900000000000001 0.31 0.75 0.25 0.6300000000000001 0.3700000000000001 0.6900000000000001 0.31 0.79 0.21 0.7699999999999999 0.23 0.72 0.28 0.79 0.21 0.74 0.26 0.72 0.28 0.76 0.24 0.74 0.26 0.7800000000000001 0.22 0.76 0.24 0.79 0.21 0.7699999999999999 0.23 0.72 0.28 0.79 0.21 0.74 0.26 0.72 0.28 0.76 0.24 0.74 0.26 0.7800000000000001 0.22 0.76 0.24 0.79 0.21 0.7699999999999999 0.23 0.72 0.28 0.79 0.21 0.74 0.26 0.72 0.28 0.76 0.24 0.74 0.26 0.7800000000000001 0.22 0.76 0.24 0.79 0.21 0.7699999999999999 0.23 0.72 0.28 0.79 0.21 0.74 0.26 0.72 0.28 0.76 0.24 0.74 0.26 0.7800000000000001 0.22 0.76 0.24 0.79 0.21 0.7699999999999999 0.23 0.72 0.28 0.79 0.21 0.74 0.26 0.72 0.28 0.76 0.24 0.74 0.26 0.7800000000000001 0.22 0.76 0.24 0.79 0.21 0.7699999999999999 0.23 0.72 0.28 0.79 0.21 0.74 0.26 0.72 0.28 0.76 0.24 0.74 0.26 0.7800000000000001 0.22 0.76 0.24 0.79 0.21 0.7699999999999999 0.23 0.72 0.28 0.79 0.21 0.74 0.26 0.72 0.28 0.76 0.24 0.74 0.26 0.7800000000000001 0.22 0.76 0.24 0.79 0.21 0.7699999999999999 0.23 0.72 0.28 0.79 0.21 0.74 0.26 0.72 0.28 0.76 0.24 0.74 0.26 0.7800000000000001 0.22 0.76 0.24 0.78 0.22 0.8200000000000001 0.18 0.74 0.26 0.78 0.22 0.8800000000000001 0.12 0.74 0.26 0.84 0.16 0.8800000000000001 0.12 0.8 0.2 0.76 0.24 0.78 0.22 0.8200000000000001 0.18 0.74 0.26 0.78 0.22 0.8800000000000001 0.12 0.74 0.26 0.84 0.16 0.8800000000000001 0.12 0.8 0.2 0.76 0.24 0.78 0.22 0.8200000000000001 0.18 0.74 0.26 0.78 0.22 0.8800000000000001 0.12 0.74 0.26 0.84 0.16 0.8800000000000001 0.12 0.8 0.2 0.76 0.24 0.78 0.22 0.8200000000000001 0.18 0.74 0.26 0.78 0.22 0.8800000000000001 0.12 0.74 0.26 0.84 0.16 0.8800000000000001 0.12 0.8 0.2 0.76 0.24 0.78 0.22 0.8200000000000001 0.18 0.74 0.26 0.78 0.22 0.8800000000000001 0.12 0.74 0.26 0.84 0.16 0.8800000000000001 0.12 0.8 0.2 0.76 0.24 0.78 0.22 0.8200000000000001 0.18 0.74 0.26 0.78 0.22 0.8800000000000001 0.12 0.74 0.26 0.84 0.16 0.8800000000000001 0.12 0.8 0.2 0.76 0.24 0.78 0.22 0.8200000000000001 0.18 0.74 0.26 0.78 0.22 0.8800000000000001 0.12 0.74 0.26 0.84 0.16 0.8800000000000001 0.12 0.8 0.2 0.76 0.24 0.78 0.22 0.8200000000000001 0.18 0.74 0.26 0.78 0.22 0.8800000000000001 0.12 0.74 0.26 0.84 0.16 0.8800000000000001 0.12 0.8 0.2 0.76 0.24 0.85 0.15 0.8300000000000001 0.17 0.87 0.13 0.85 0.15 0.8900000000000001 0.11 0.87 0.13 0.8200000000000002 0.18 0.8900000000000001 0.11 0.8400000000000002 0.16 0.8200000000000002 0.18 0.85 0.15 0.8300000000000001 0.17 0.87 0.13 0.85 0.15 0.8900000000000001 0.11 0.87 0.13 0.8200000000000002 0.18 0.8900000000000001 0.11 0.8400000000000002 0.16 0.8200000000000002 0.18 0.85 0.15 0.8300000000000001 0.17 0.87 0.13 0.85 0.15 0.8900000000000001 0.11 0.87 0.13 0.8200000000000002 0.18 0.8900000000000001 0.11 0.8400000000000002 0.16 0.8200000000000002 0.18 0.85 0.15 0.8300000000000001 0.17 0.87 0.13 0.85 0.15 0.8900000000000001 0.11 0.87 0.13 0.8200000000000002 0.18 0.8900000000000001 0.11 0.8400000000000002 0.16 0.8200000000000002 0.18 0.85 0.15 0.8300000000000001 0.17 0.87 0.13 0.85 0.15 0.8900000000000001 0.11 0.87 0.13 0.8200000000000002 0.18 0.8900000000000001 0.11 0.8400000000000002 0.16 0.8200000000000002 0.18 0.85 0.15 0.8300000000000001 0.17 0.87 0.13 0.85 0.15 0.8900000000000001 0.11 0.87 0.13 0.8200000000000002 0.18 0.8900000000000001 0.11 0.8400000000000002 0.16 0.8200000000000002 0.18 0.85 0.15 0.8300000000000001 0.17 0.87 0.13 0.85 0.15 0.8900000000000001 0.11 0.87 0.13 0.8200000000000002 0.18 0.8900000000000001 0.11 0.8400000000000002 0.16 0.8200000000000002 0.18 0.85 0.15 0.8300000000000001 0.17 0.87 0.13 0.85 0.15 0.8900000000000001 0.11 0.87 0.13 0.8200000000000002 0.18 0.8900000000000001 0.11 0.8400000000000002 0.16 0.8200000000000002 0.18</probabilities>
		</cpt>
		<cpt id="water">
			<state id="High" />
			<state id="Low" />
			<parents>Cover_Crops Grape_Price Canopy_Management_Practices Water_Price Weather_Conditions Fertiliser Water_Licence Yield_and_Quality_targets Soil_type Pest_and_Disease_Management</parents>
			<probabilities>0.05263157894736842 0.9473684210526316 0.1111111111111111 0.888888888888889 0.05263157894736842 0.9473684210526316 0.1111111111111111 0.888888888888889 0.05263157894736842 0.9473684210526316 0.1111111111111111 0.888888888888889 0.05263157894736842 0.9473684210526316 0.1111111111111111 0.888888888888889 0.05263157894736842 0.9473684210526316 0.1111111111111111 0.888888888888889 0.05263157894736842 0.9473684210526316 0.1111111111111111 0.888888888888889 0.05263157894736842 0.9473684210526316 0.1111111111111111 0.888888888888889 0.05263157894736842 0.9473684210526316 0.1111111111111111 0.888888888888889 0.05263157894736842 0.9473684210526316 0.1111111111111111 0.888888888888889 0.05263157894736842 0.9473684210526316 0.1111111111111111 0.888888888888889 0.05263157894736842 0.9473684210526316 0.1111111111111111 0.888888888888889 0.05263157894736842 0.9473684210526316 0.1111111111111111 0.888888888888889 0.05263157894736842 0.9473684210526316 0.1111111111111111 0.888888888888889 0.05263157894736842 0.9473684210526316 0.1111111111111111 0.888888888888889 0.05263157894736842 0.9473684210526316 0.1111111111111111 0.888888888888889 0.05263157894736842 0.9473684210526316 0.1111111111111111 0.888888888888889 0.1578947368421053 0.8421052631578948 0.2258064516129032 0.7741935483870968 0.1578947368421053 0.8421052631578948 0.2258064516129032 0.7741935483870968 0.1578947368421053 0.8421052631578948 0.2258064516129032 0.7741935483870968 0.1578947368421053 0.8421052631578948 0.2258064516129032 0.7741935483870968 0.1578947368421053 0.8421052631578948 0.2258064516129032 0.7741935483870968 0.1578947368421053 0.8421052631578948 0.2258064516129032 0.7741935483870968 0.1578947368421053 0.8421052631578948 0.2258064516129032 0.7741935483870968 0.1578947368421053 0.8421052631578948 0.2258064516129032 0.7741935483870968 0.1578947368421053 0.8421052631578948 0.2258064516129032 0.7741935483870968 0.1578947368421053 0.8421052631578948 0.2258064516129032 0.7741935483870968 0.1578947368421053 0.8421052631578948 0.2258064516129032 0.7741935483870968 0.1578947368421053 0.8421052631578948 0.2258064516129032 0.7741935483870968 0.1578947368421053 0.8421052631578948 0.2258064516129032 0.7741935483870968 0.1578947368421053 0.8421052631578948 0.2258064516129032 0.7741935483870968 0.1578947368421053 0.8421052631578948 0.2258064516129032 0.7741935483870968 0.1578947368421053 0.8421052631578948 0.2258064516129032 0.7741935483870968 0.1764705882352942 0.8235294117647058 0.3253012048192772 0.6746987951807228 0.1764705882352942 0.8235294117647058 0.3253012048192772 0.6746987951807228 0.1764705882352942 0.8235294117647058 0.3253012048192772 0.6746987951807228 0.1764705882352942 0.8235294117647058 0.3253012048192772 0.6746987951807228 0.1764705882352942 0.8235294117647058 0.3253012048192772 0.6746987951807228 0.1764705882352942 0.8235294117647058 0.3253012048192772 0.6746987951807228 0.1764705882352942 0.8235294117647058 0.3253012048192772 0.6746987951807228 0.1764705882352942 0.8235294117647058 0.3253012048192772 0.6746987951807228 0.1764705882352942 0.8235294117647058 0.3253012048192772 0.6746987951807228 0.1764705882352942 0.8235294117647058 0.3253012048192772 0.6746987951807228 0.1764705882352942 0.8235294117647058 0.3253012048192772 0.6746987951807228 0.1764705882352942 0.8235294117647058 0.3253012048192772 0.6746987951807228 0.1764705882352942 0.8235294117647058 0.3253012048192772 0.6746987951807228 0.1764705882352942 0.8235294117647058 0.3253012048192772 0.6746987951807228 0.1764705882352942 0.8235294117647058 0.3253012048192772 0.6746987951807228 0.1764705882352942 0.8235294117647058 0.3253012048192772 0.6746987951807228 0.3333333333333333 0.6666666666666667 0.4374999999999999 0.5625000000000001 0.3333333333333333 0.6666666666666667 0.4374999999999999 0.5625000000000001 0.3333333333333333 0.6666666666666667 0.4374999999999999 0.5625000000000001 0.3333333333333333 0.6666666666666667 0.4374999999999999 0.5625000000000001 0.3333333333333333 0.6666666666666667 0.4374999999999999 0.5625000000000001 0.3333333333333333 0.6666666666666667 0.4374999999999999 0.5625000000000001 0.3333333333333333 0.6666666666666667 0.4374999999999999 0.5625000000000001 0.3333333333333333 0.6666666666666667 0.4374999999999999 0.5625000000000001 0.3333333333333333 0.6666666666666667 0.4374999999999999 0.5625000000000001 0.3333333333333333 0.6666666666666667 0.4374999999999999 0.5625000000000001 0.3333333333333333 0.6666666666666667 0.4374999999999999 0.5625000000000001 0.3333333333333333 0.6666666666666667 0.4374999999999999 0.5625000000000001 0.3333333333333333 0.6666666666666667 0.4374999999999999 0.5625000000000001 0.3333333333333333 0.6666666666666667 0.4374999999999999 0.5625000000000001 0.3333333333333333 0.6666666666666667 0.4374999999999999 0.5625000000000001 0.3333333333333333 0.6666666666666667 0.4374999999999999 0.5625000000000001 0.4545454545454545 0.5454545454545454 0.5555555555555556 0.4444444444444445 0.4545454545454545 0.5454545454545454 0.5555555555555556 0.4444444444444445 0.4545454545454545 0.5454545454545454 0.5555555555555556 0.4444444444444445 0.4545454545454545 0.5454545454545454 0.5555555555555556 0.4444444444444445 0.4545454545454545 0.5454545454545454 0.5555555555555556 0.4444444444444445 0.4545454545454545 0.5454545454545454 0.5555555555555556 0.4444444444444445 0.4545454545454545 0.5454545454545454 0.5555555555555556 0.4444444444444445 0.4545454545454545 0.5454545454545454 0.5555555555555556 0.4444444444444445 0.4545454545454545 0.5454545454545454 0.5555555555555556 0.4444444444444445 0.4545454545454545 0.5454545454545454 0.5555555555555556 0.4444444444444445 0.4545454545454545 0.5454545454545454 0.5555555555555556 0.4444444444444445 0.4545454545454545 0.5454545454545454 0.5555555555555556 0.4444444444444445 0.4545454545454545 0.5454545454545454 0.5555555555555556 0.4444444444444445 0.4545454545454545 0.5454545454545454 0.5555555555555556 0.4444444444444445 0.4545454545454545 0.5454545454545454 0.5555555555555556 0.4444444444444445 0.4545454545454545 0.5454545454545454 0.5555555555555556 0.4444444444444445 0.5675675675675675 0.4324324324324325 0.6923076923076923 0.3076923076923078 0.5675675675675675 0.4324324324324325 0.6923076923076923 0.3076923076923078 0.5675675675675675 0.4324324324324325 0.6923076923076923 0.3076923076923078 0.5675675675675675 0.4324324324324325 0.6923076923076923 0.3076923076923078 0.5675675675675675 0.4324324324324325 0.6923076923076923 0.3076923076923078 0.5675675675675675 0.4324324324324325 0.6923076923076923 0.3076923076923078 0.5675675675675675 0.4324324324324325 0.6923076923076923 0.3076923076923078 0.5675675675675675 0.4324324324324325 0.6923076923076923 0.3076923076923078 0.5675675675675675 0.4324324324324325 0.6923076923076923 0.3076923076923078 0.5675675675675675 0.4324324324324325 0.6923076923076923 0.3076923076923078 0.5675675675675675 0.4324324324324325 0.6923076923076923 0.3076923076923078 0.5675675675675675 0.4324324324324325 0.6923076923076923 0.3076923076923078 0.5675675675675675 0.4324324324324325 0.6923076923076923 0.3076923076923078 0.5675675675675675 0.4324324324324325 0.6923076923076923 0.3076923076923078 0.5675675675675675 0.4324324324324325 0.6923076923076923 0.3076923076923078 0.5675675675675675 0.4324324324324325 0.6923076923076923 0.3076923076923078 0.660377358490566 0.3396226415094339 0.7446808510638298 0.2553191489361702 0.660377358490566 0.3396226415094339 0.7446808510638298 0.2553191489361702 0.660377358490566 0.3396226415094339 0.7446808510638298 0.2553191489361702 0.660377358490566 0.3396226415094339 0.7446808510638298 0.2553191489361702 0.660377358490566 0.3396226415094339 0.7446808510638298 0.2553191489361702 0.660377358490566 0.3396226415094339 0.7446808510638298 0.2553191489361702 0.660377358490566 0.3396226415094339 0.7446808510638298 0.2553191489361702 0.660377358490566 0.3396226415094339 0.7446808510638298 0.2553191489361702 0.660377358490566 0.3396226415094339 0.7446808510638298 0.2553191489361702 0.660377358490566 0.3396226415094339 0.7446808510638298 0.2553191489361702 0.660377358490566 0.3396226415094339 0.7446808510638298 0.2553191489361702 0.660377358490566 0.3396226415094339 0.7446808510638298 0.2553191489361702 0.660377358490566 0.3396226415094339 0.7446808510638298 0.2553191489361702 0.660377358490566 0.3396226415094339 0.7446808510638298 0.2553191489361702 0.660377358490566 0.3396226415094339 0.7446808510638298 0.2553191489361702 0.660377358490566 0.3396226415094339 0.7446808510638298 0.2553191489361702 0.7777777777777777 0.2222222222222223 0.8571428571428571 0.1428571428571429 0.7777777777777777 0.2222222222222223 0.8571428571428571 0.1428571428571429 0.7777777777777777 0.2222222222222223 0.8571428571428571 0.1428571428571429 0.7777777777777777 0.2222222222222223 0.8571428571428571 0.1428571428571429 0.7777777777777777 0.2222222222222223 0.8571428571428571 0.1428571428571429 0.7777777777777777 0.2222222222222223 0.8571428571428571 0.1428571428571429 0.7777777777777777 0.2222222222222223 0.8571428571428571 0.1428571428571429 0.7777777777777777 0.2222222222222223 0.8571428571428571 0.1428571428571429 0.7777777777777777 0.2222222222222223 0.8571428571428571 0.1428571428571429 0.7777777777777777 0.2222222222222223 0.8571428571428571 0.1428571428571429 0.7777777777777777 0.2222222222222223 0.8571428571428571 0.1428571428571429 0.7777777777777777 0.2222222222222223 0.8571428571428571 0.1428571428571429 0.7777777777777777 0.2222222222222223 0.8571428571428571 0.1428571428571429 0.7777777777777777 0.2222222222222223 0.8571428571428571 0.1428571428571429 0.7777777777777777 0.2222222222222223 0.8571428571428571 0.1428571428571429 0.7777777777777777 0.2222222222222223 0.8571428571428571 0.1428571428571429 0.9310344827586207 0.06896551724137931 0.6923076923076923 0.3076923076923077 0.9310344827586207 0.06896551724137931 0.6923076923076923 0.3076923076923077 0.9310344827586207 0.06896551724137931 0.6923076923076923 0.3076923076923077 0.9310344827586207 0.06896551724137931 0.6923076923076923 0.3076923076923077 0.9310344827586207 0.06896551724137931 0.6923076923076923 0.3076923076923077 0.9310344827586207 0.06896551724137931 0.6923076923076923 0.3076923076923077 0.9310344827586207 0.06896551724137931 0.6923076923076923 0.3076923076923077 0.9310344827586207 0.06896551724137931 0.6923076923076923 0.3076923076923077 0.9310344827586207 0.06896551724137931 0.6923076923076923 0.3076923076923077 0.9310344827586207 0.06896551724137931 0.6923076923076923 0.3076923076923077 0.9310344827586207 0.06896551724137931 0.6923076923076923 0.3076923076923077 0.9310344827586207 0.06896551724137931 0.6923076923076923 0.3076923076923077 0.9310344827586207 0.06896551724137931 0.6923076923076923 0.3076923076923077 0.9310344827586207 0.06896551724137931 0.6923076923076923 0.3076923076923077 0.9310344827586207 0.06896551724137931 0.6923076923076923 0.3076923076923077 0.9310344827586207 0.06896551724137931 0.6923076923076923 0.3076923076923077 0.08860759493670885 0.9113924050632911 0.1428571428571428 0.8571428571428572 0.08860759493670885 0.9113924050632911 0.1428571428571428 0.8571428571428572 0.08860759493670885 0.9113924050632911 0.1428571428571428 0.8571428571428572 0.08860759493670885 0.9113924050632911 0.1428571428571428 0.8571428571428572 0.08860759493670885 0.9113924050632911 0.1428571428571428 0.8571428571428572 0.08860759493670885 0.9113924050632911 0.1428571428571428 0.8571428571428572 0.08860759493670885 0.9113924050632911 0.1428571428571428 0.8571428571428572 0.08860759493670885 0.9113924050632911 0.1428571428571428 0.8571428571428572 0.08860759493670885 0.9113924050632911 0.1428571428571428 0.8571428571428572 0.08860759493670885 0.9113924050632911 0.1428571428571428 0.8571428571428572 0.08860759493670885 0.9113924050632911 0.1428571428571428 0.8571428571428572 0.08860759493670885 0.9113924050632911 0.1428571428571428 0.8571428571428572 0.08860759493670885 0.9113924050632911 0.1428571428571428 0.8571428571428572 0.08860759493670885 0.9113924050632911 0.1428571428571428 0.8571428571428572 0.08860759493670885 0.9113924050632911 0.1428571428571428 0.8571428571428572 0.08860759493670885 0.9113924050632911 0.1428571428571428 0.8571428571428572 0.2727272727272728 0.7272727272727273 0.05882352941176471 0.9411764705882353 0.2727272727272728 0.7272727272727273 0.05882352941176471 0.9411764705882353 0.2727272727272728 0.7272727272727273 0.05882352941176471 0.9411764705882353 0.2727272727272728 0.7272727272727273 0.05882352941176471 0.9411764705882353 0.2727272727272728 0.7272727272727273 0.05882352941176471 0.9411764705882353 0.2727272727272728 0.7272727272727273 0.05882352941176471 0.9411764705882353 0.2727272727272728 0.7272727272727273 0.05882352941176471 0.9411764705882353 0.2727272727272728 0.7272727272727273 0.05882352941176471 0.9411764705882353 0.2727272727272728 0.7272727272727273 0.05882352941176471 0.9411764705882353 0.2727272727272728 0.7272727272727273 0.05882352941176471 0.9411764705882353 0.2727272727272728 0.7272727272727273 0.05882352941176471 0.9411764705882353 0.2727272727272728 0.7272727272727273 0.05882352941176471 0.9411764705882353 0.2727272727272728 0.7272727272727273 0.05882352941176471 0.9411764705882353 0.2727272727272728 0.7272727272727273 0.05882352941176471 0.9411764705882353 0.2727272727272728 0.7272727272727273 0.05882352941176471 0.9411764705882353 0.2727272727272728 0.7272727272727273 0.05882352941176471 0.9411764705882353 0.2727272727272728 0.7272727272727273 0.391304347826087 0.6086956521739131 0.2727272727272728 0.7272727272727273 0.391304347826087 0.6086956521739131 0.2727272727272728 0.7272727272727273 0.391304347826087 0.6086956521739131 0.2727272727272728 0.7272727272727273 0.391304347826087 0.6086956521739131 0.2727272727272728 0.7272727272727273 0.391304347826087 0.6086956521739131 0.2727272727272728 0.7272727272727273 0.391304347826087 0.6086956521739131 0.2727272727272728 0.7272727272727273 0.391304347826087 0.6086956521739131 0.2727272727272728 0.7272727272727273 0.391304347826087 0.6086956521739131 0.2727272727272728 0.7272727272727273 0.391304347826087 0.6086956521739131 0.2727272727272728 0.7272727272727273 0.391304347826087 0.6086956521739131 0.2727272727272728 0.7272727272727273 0.391304347826087 0.6086956521739131 0.2727272727272728 0.7272727272727273 0.391304347826087 0.6086956521739131 0.2727272727272728 0.7272727272727273 0.391304347826087 0.6086956521739131 0.2727272727272728 0.7272727272727273 0.391304347826087 0.6086956521739131 0.2727272727272728 0.7272727272727273 0.391304347826087 0.6086956521739131 0.2727272727272728 0.7272727272727273 0.391304347826087 0.6086956521739131 0.4615384615384616 0.5384615384615384 0.1818181818181819 0.8181818181818182 0.4615384615384616 0.5384615384615384 0.1818181818181819 0.8181818181818182 0.4615384615384616 0.5384615384615384 0.1818181818181819 0.8181818181818182 0.4615384615384616 0.5384615384615384 0.1818181818181819 0.8181818181818182 0.4615384615384616 0.5384615384615384 0.1818181818181819 0.8181818181818182 0.4615384615384616 0.5384615384615384 0.1818181818181819 0.8181818181818182 0.4615384615384616 0.5384615384615384 0.1818181818181819 0.8181818181818182 0.4615384615384616 0.5384615384615384 0.1818181818181819 0.8181818181818182 0.4615384615384616 0.5384615384615384 0.1818181818181819 0.8181818181818182 0.4615384615384616 0.5384615384615384 0.1818181818181819 0.8181818181818182 0.4615384615384616 0.5384615384615384 0.1818181818181819 0.8181818181818182 0.4615384615384616 0.5384615384615384 0.1818181818181819 0.8181818181818182 0.4615384615384616 0.5384615384615384 0.1818181818181819 0.8181818181818182 0.4615384615384616 0.5384615384615384 0.1818181818181819 0.8181818181818182 0.4615384615384616 0.5384615384615384 0.1818181818181819 0.8181818181818182 0.4615384615384616 0.5384615384615384 0.1818181818181819 0.8181818181818182 0.4705882352941176 0.5294117647058824 0.6666666666666666 0.3333333333333334 0.4705882352941176 0.5294117647058824 0.6666666666666666 0.3333333333333334 0.4705882352941176 0.5294117647058824 0.6666666666666666 0.3333333333333334 0.4705882352941176 0.5294117647058824 0.6666666666666666 0.3333333333333334 0.4705882352941176 0.5294117647058824 0.6666666666666666 0.3333333333333334 0.4705882352941176 0.5294117647058824 0.6666666666666666 0.3333333333333334 0.4705882352941176 0.5294117647058824 0.6666666666666666 0.3333333333333334 0.4705882352941176 0.5294117647058824 0.6666666666666666 0.3333333333333334 0.4705882352941176 0.5294117647058824 0.6666666666666666 0.3333333333333334 0.4705882352941176 0.5294117647058824 0.6666666666666666 0.3333333333333334 0.4705882352941176 0.5294117647058824 0.6666666666666666 0.3333333333333334 0.4705882352941176 0.5294117647058824 0.6666666666666666 0.3333333333333334 0.4705882352941176 0.5294117647058824 0.6666666666666666 0.3333333333333334 0.4705882352941176 0.5294117647058824 0.6666666666666666 0.3333333333333334 0.4705882352941176 0.5294117647058824 0.6666666666666666 0.3333333333333334 0.4705882352941176 0.5294117647058824 0.6666666666666666 0.3333333333333334 0.6585365853658538 0.3414634146341463 0.3333333333333334 0.6666666666666666 0.6585365853658538 0.3414634146341463 0.3333333333333334 0.6666666666666666 0.6585365853658538 0.3414634146341463 0.3333333333333334 0.6666666666666666 0.6585365853658538 0.3414634146341463 0.3333333333333334 0.6666666666666666 0.6585365853658538 0.3414634146341463 0.3333333333333334 0.6666666666666666 0.6585365853658538 0.3414634146341463 0.3333333333333334 0.6666666666666666 0.6585365853658538 0.3414634146341463 0.3333333333333334 0.6666666666666666 0.6585365853658538 0.3414634146341463 0.3333333333333334 0.6666666666666666 0.6585365853658538 0.3414634146341463 0.3333333333333334 0.6666666666666666 0.6585365853658538 0.3414634146341463 0.3333333333333334 0.6666666666666666 0.6585365853658538 0.3414634146341463 0.3333333333333334 0.6666666666666666 0.6585365853658538 0.3414634146341463 0.3333333333333334 0.6666666666666666 0.6585365853658538 0.3414634146341463 0.3333333333333334 0.6666666666666666 0.6585365853658538 0.3414634146341463 0.3333333333333334 0.6666666666666666 0.6585365853658538 0.3414634146341463 0.3333333333333334 0.6666666666666666 0.6585365853658538 0.3414634146341463 0.3333333333333334 0.6666666666666666 0.6746987951807228 0.3253012048192772 0.8235294117647058 0.1764705882352942 0.6746987951807228 0.3253012048192772 0.8235294117647058 0.1764705882352942 0.6746987951807228 0.3253012048192772 0.8235294117647058 0.1764705882352942 0.6746987951807228 0.3253012048192772 0.8235294117647058 0.1764705882352942 0.6746987951807228 0.3253012048192772 0.8235294117647058 0.1764705882352942 0.6746987951807228 0.3253012048192772 0.8235294117647058 0.1764705882352942 0.6746987951807228 0.3253012048192772 0.8235294117647058 0.1764705882352942 0.6746987951807228 0.3253012048192772 0.8235294117647058 0.1764705882352942 0.6746987951807228 0.3253012048192772 0.8235294117647058 0.1764705882352942 0.6746987951807228 0.3253012048192772 0.8235294117647058 0.1764705882352942 0.6746987951807228 0.3253012048192772 0.8235294117647058 0.1764705882352942 0.6746987951807228 0.3253012048192772 0.8235294117647058 0.1764705882352942 0.6746987951807228 0.3253012048192772 0.8235294117647058 0.1764705882352942 0.6746987951807228 0.3253012048192772 0.8235294117647058 0.1764705882352942 0.6746987951807228 0.3253012048192772 0.8235294117647058 0.1764705882352942 0.6746987951807228 0.3253012048192772 0.8235294117647058 0.1764705882352942 0.6666666666666666 0.3333333333333333 0.8181818181818182 0.1818181818181818 0.6666666666666666 0.3333333333333333 0.8181818181818182 0.1818181818181818 0.6666666666666666 0.3333333333333333 0.8181818181818182 0.1818181818181818 0.6666666666666666 0.3333333333333333 0.8181818181818182 0.1818181818181818 0.6666666666666666 0.3333333333333333 0.8181818181818182 0.1818181818181818 0.6666666666666666 0.3333333333333333 0.8181818181818182 0.1818181818181818 0.6666666666666666 0.3333333333333333 0.8181818181818182 0.1818181818181818 0.6666666666666666 0.3333333333333333 0.8181818181818182 0.1818181818181818 0.6666666666666666 0.3333333333333333 0.8181818181818182 0.1818181818181818 0.6666666666666666 0.3333333333333333 0.8181818181818182 0.1818181818181818 0.6666666666666666 0.3333333333333333 0.8181818181818182 0.1818181818181818 0.6666666666666666 0.3333333333333333 0.8181818181818182 0.1818181818181818 0.6666666666666666 0.3333333333333333 0.8181818181818182 0.1818181818181818 0.6666666666666666 0.3333333333333333 0.8181818181818182 0.1818181818181818 0.6666666666666666 0.3333333333333333 0.8181818181818182 0.1818181818181818 0.6666666666666666 0.3333333333333333 0.8181818181818182 0.1818181818181818 0.870967741935484 0.1290322580645162 0.9130434782608696 0.08695652173913043 0.870967741935484 0.1290322580645162 0.9130434782608696 0.08695652173913043 0.870967741935484 0.1290322580645162 0.9130434782608696 0.08695652173913043 0.870967741935484 0.1290322580645162 0.9130434782608696 0.08695652173913043 0.870967741935484 0.1290322580645162 0.9130434782608696 0.08695652173913043 0.870967741935484 0.1290322580645162 0.9130434782608696 0.08695652173913043 0.870967741935484 0.1290322580645162 0.9130434782608696 0.08695652173913043 0.870967741935484 0.1290322580645162 0.9130434782608696 0.08695652173913043 0.870967741935484 0.1290322580645162 0.9130434782608696 0.08695652173913043 0.870967741935484 0.1290322580645162 0.9130434782608696 0.08695652173913043 0.870967741935484 0.1290322580645162 0.9130434782608696 0.08695652173913043 0.870967741935484 0.1290322580645162 0.9130434782608696 0.08695652173913043 0.870967741935484 0.1290322580645162 0.9130434782608696 0.08695652173913043 0.870967741935484 0.1290322580645162 0.9130434782608696 0.08695652173913043 0.870967741935484 0.1290322580645162 0.9130434782608696 0.08695652173913043 0.870967741935484 0.1290322580645162 0.9130434782608696 0.08695652173913043 0.05263157894736842 0.9473684210526316 0.1111111111111111 0.888888888888889 0.05263157894736842 0.9473684210526316 0.1111111111111111 0.888888888888889 0.05263157894736842 0.9473684210526316 0.1111111111111111 0.888888888888889 0.05263157894736842 0.9473684210526316 0.1111111111111111 0.888888888888889 0.05263157894736842 0.9473684210526316 0.1111111111111111 0.888888888888889 0.05263157894736842 0.9473684210526316 0.1111111111111111 0.888888888888889 0.05263157894736842 0.9473684210526316 0.1111111111111111 0.888888888888889 0.05263157894736842 0.9473684210526316 0.1111111111111111 0.888888888888889 0.05263157894736842 0.9473684210526316 0.1111111111111111 0.888888888888889 0.05263157894736842 0.9473684210526316 0.1111111111111111 0.888888888888889 0.05263157894736842 0.9473684210526316 0.1111111111111111 0.888888888888889 0.05263157894736842 0.9473684210526316 0.1111111111111111 0.888888888888889 0.05263157894736842 0.9473684210526316 0.1111111111111111 0.888888888888889 0.05263157894736842 0.9473684210526316 0.1111111111111111 0.888888888888889 0.05263157894736842 0.9473684210526316 0.1111111111111111 0.888888888888889 0.05263157894736842 0.9473684210526316 0.1111111111111111 0.888888888888889 0.1578947368421053 0.8421052631578948 0.2258064516129032 0.7741935483870968 0.1578947368421053 0.8421052631578948 0.2258064516129032 0.7741935483870968 0.1578947368421053 0.8421052631578948 0.2258064516129032 0.7741935483870968 0.1578947368421053 0.8421052631578948 0.2258064516129032 0.7741935483870968 0.1578947368421053 0.8421052631578948 0.2258064516129032 0.7741935483870968 0.1578947368421053 0.8421052631578948 0.2258064516129032 0.7741935483870968 0.1578947368421053 0.8421052631578948 0.2258064516129032 0.7741935483870968 0.1578947368421053 0.8421052631578948 0.2258064516129032 0.7741935483870968 0.1578947368421053 0.8421052631578948 0.2258064516129032 0.7741935483870968 0.1578947368421053 0.8421052631578948 0.2258064516129032 0.7741935483870968 0.1578947368421053 0.8421052631578948 0.2258064516129032 0.7741935483870968 0.1578947368421053 0.8421052631578948 0.2258064516129032 0.7741935483870968 0.1578947368421053 0.8421052631578948 0.2258064516129032 0.7741935483870968 0.1578947368421053 0.8421052631578948 0.2258064516129032 0.7741935483870968 0.1578947368421053 0.8421052631578948 0.2258064516129032 0.7741935483870968 0.1578947368421053 0.8421052631578948 0.2258064516129032 0.7741935483870968 0.2631578947368421 0.736842105263158 0.3488372093023256 0.6511627906976744 0.2631578947368421 0.736842105263158 0.3488372093023256 0.6511627906976744 0.2631578947368421 0.736842105263158 0.3488372093023256 0.6511627906976744 0.2631578947368421 0.736842105263158 0.3488372093023256 0.6511627906976744 0.2631578947368421 0.736842105263158 0.3488372093023256 0.6511627906976744 0.2631578947368421 0.736842105263158 0.3488372093023256 0.6511627906976744 0.2631578947368421 0.736842105263158 0.3488372093023256 0.6511627906976744 0.2631578947368421 0.736842105263158 0.3488372093023256 0.6511627906976744 0.2631578947368421 0.736842105263158 0.3488372093023256 0.6511627906976744 0.2631578947368421 0.736842105263158 0.3488372093023256 0.6511627906976744 0.2631578947368421 0.736842105263158 0.3488372093023256 0.6511627906976744 0.2631578947368421 0.736842105263158 0.3488372093023256 0.6511627906976744 0.2631578947368421 0.736842105263158 0.3488372093023256 0.6511627906976744 0.2631578947368421 0.736842105263158 0.3488372093023256 0.6511627906976744 0.2631578947368421 0.736842105263158 0.3488372093023256 0.6511627906976744 0.2631578947368421 0.736842105263158 0.3488372093023256 0.6511627906976744 0.3684210526315789 0.6315789473684211 0.4999999999999999 0.5000000000000001 0.3684210526315789 0.6315789473684211 0.4999999999999999 0.5000000000000001 0.3684210526315789 0.6315789473684211 0.4999999999999999 0.5000000000000001 0.3684210526315789 0.6315789473684211 0.4999999999999999 0.5000000000000001 0.3684210526315789 0.6315789473684211 0.4999999999999999 0.5000000000000001 0.3684210526315789 0.6315789473684211 0.4999999999999999 0.5000000000000001 0.3684210526315789 0.6315789473684211 0.4999999999999999 0.5000000000000001 0.3684210526315789 0.6315789473684211 0.4999999999999999 0.5000000000000001 0.3684210526315789 0.6315789473684211 0.4999999999999999 0.5000000000000001 0.3684210526315789 0.6315789473684211 0.4999999999999999 0.5000000000000001 0.3684210526315789 0.6315789473684211 0.4999999999999999 0.5000000000000001 0.3684210526315789 0.6315789473684211 0.4999999999999999 0.5000000000000001 0.3684210526315789 0.6315789473684211 0.4999999999999999 0.5000000000000001 0.3684210526315789 0.6315789473684211 0.4999999999999999 0.5000000000000001 0.3684210526315789 0.6315789473684211 0.4999999999999999 0.5000000000000001 0.3684210526315789 0.6315789473684211 0.4999999999999999 0.5000000000000001 0.4545454545454545 0.5454545454545454 0.5555555555555556 0.4444444444444445 0.4545454545454545 0.5454545454545454 0.5555555555555556 0.4444444444444445 0.4545454545454545 0.5454545454545454 0.5555555555555556 0.4444444444444445 0.4545454545454545 0.5454545454545454 0.5555555555555556 0.4444444444444445 0.4545454545454545 0.5454545454545454 0.5555555555555556 0.4444444444444445 0.4545454545454545 0.5454545454545454 0.5555555555555556 0.4444444444444445 0.4545454545454545 0.5454545454545454 0.5555555555555556 0.4444444444444445 0.4545454545454545 0.5454545454545454 0.5555555555555556 0.4444444444444445 0.4545454545454545 0.5454545454545454 0.5555555555555556 0.4444444444444445 0.4545454545454545 0.5454545454545454 0.5555555555555556 0.4444444444444445 0.4545454545454545 0.5454545454545454 0.5555555555555556 0.4444444444444445 0.4545454545454545 0.5454545454545454 0.5555555555555556 0.4444444444444445 0.4545454545454545 0.5454545454545454 0.5555555555555556 0.4444444444444445 0.4545454545454545 0.5454545454545454 0.5555555555555556 0.4444444444444445 0.4545454545454545 0.5454545454545454 0.5555555555555556 0.4444444444444445 0.4545454545454545 0.5454545454545454 0.5555555555555556 0.4444444444444445 0.5675675675675675 0.4324324324324325 0.6923076923076923 0.3076923076923078 0.5675675675675675 0.4324324324324325 0.6923076923076923 0.3076923076923078 0.5675675675675675 0.4324324324324325 0.6923076923076923 0.3076923076923078 0.5675675675675675 0.4324324324324325 0.6923076923076923 0.3076923076923078 0.5675675675675675 0.4324324324324325 0.6923076923076923 0.3076923076923078 0.5675675675675675 0.4324324324324325 0.6923076923076923 0.3076923076923078 0.5675675675675675 0.4324324324324325 0.6923076923076923 0.3076923076923078 0.5675675675675675 0.4324324324324325 0.6923076923076923 0.3076923076923078 0.5675675675675675 0.4324324324324325 0.6923076923076923 0.3076923076923078 0.5675675675675675 0.4324324324324325 0.6923076923076923 0.3076923076923078 0.5675675675675675 0.4324324324324325 0.6923076923076923 0.3076923076923078 0.5675675675675675 0.4324324324324325 0.6923076923076923 0.3076923076923078 0.5675675675675675 0.4324324324324325 0.6923076923076923 0.3076923076923078 0.5675675675675675 0.4324324324324325 0.6923076923076923 0.3076923076923078 0.5675675675675675 0.4324324324324325 0.6923076923076923 0.3076923076923078 0.5675675675675675 0.4324324324324325 0.6923076923076923 0.3076923076923078 0.7777777777777778 0.2222222222222222 0.3684210526315789 0.6315789473684211 0.7777777777777778 0.2222222222222222 0.3684210526315789 0.6315789473684211 0.7777777777777778 0.2222222222222222 0.3684210526315789 0.6315789473684211 0.7777777777777778 0.2222222222222222 0.3684210526315789 0.6315789473684211 0.7777777777777778 0.2222222222222222 0.3684210526315789 0.6315789473684211 0.7777777777777778 0.2222222222222222 0.3684210526315789 0.6315789473684211 0.7777777777777778 0.2222222222222222 0.3684210526315789 0.6315789473684211 0.7777777777777778 0.2222222222222222 0.3684210526315789 0.6315789473684211 0.7777777777777778 0.2222222222222222 0.3684210526315789 0.6315789473684211 0.7777777777777778 0.2222222222222222 0.3684210526315789 0.6315789473684211 0.7777777777777778 0.2222222222222222 0.3684210526315789 0.6315789473684211 0.7777777777777778 0.2222222222222222 0.3684210526315789 0.6315789473684211 0.7777777777777778 0.2222222222222222 0.3684210526315789 0.6315789473684211 0.7777777777777778 0.2222222222222222 0.3684210526315789 0.6315789473684211 0.7777777777777778 0.2222222222222222 0.3684210526315789 0.6315789473684211 0.7777777777777778 0.2222222222222222 0.3684210526315789 0.6315789473684211 0.7777777777777777 0.2222222222222223 0.8571428571428571 0.1428571428571429 0.7777777777777777 0.2222222222222223 0.8571428571428571 0.1428571428571429 0.7777777777777777 0.2222222222222223 0.8571428571428571 0.1428571428571429 0.7777777777777777 0.2222222222222223 0.8571428571428571 0.1428571428571429 0.7777777777777777 0.2222222222222223 0.8571428571428571 0.1428571428571429 0.7777777777777777 0.2222222222222223 0.8571428571428571 0.1428571428571429 0.7777777777777777 0.2222222222222223 0.8571428571428571 0.1428571428571429 0.7777777777777777 0.2222222222222223 0.8571428571428571 0.1428571428571429 0.7777777777777777 0.2222222222222223 0.8571428571428571 0.1428571428571429 0.7777777777777777 0.2222222222222223 0.8571428571428571 0.1428571428571429 0.7777777777777777 0.2222222222222223 0.8571428571428571 0.1428571428571429 0.7777777777777777 0.2222222222222223 0.8571428571428571 0.1428571428571429 0.7777777777777777 0.2222222222222223 0.8571428571428571 0.1428571428571429 0.7777777777777777 0.2222222222222223 0.8571428571428571 0.1428571428571429 0.7777777777777777 0.2222222222222223 0.8571428571428571 0.1428571428571429 0.7777777777777777 0.2222222222222223 0.8571428571428571 0.1428571428571429 0.9310344827586207 0.06896551724137931 0.6923076923076923 0.3076923076923077 0.9310344827586207 0.06896551724137931 0.6923076923076923 0.3076923076923077 0.9310344827586207 0.06896551724137931 0.6923076923076923 0.3076923076923077 0.9310344827586207 0.06896551724137931 0.6923076923076923 0.3076923076923077 0.9310344827586207 0.06896551724137931 0.6923076923076923 0.3076923076923077 0.9310344827586207 0.06896551724137931 0.6923076923076923 0.3076923076923077 0.9310344827586207 0.06896551724137931 0.6923076923076923 0.3076923076923077 0.9310344827586207 0.06896551724137931 0.6923076923076923 0.3076923076923077 0.9310344827586207 0.06896551724137931 0.6923076923076923 0.3076923076923077 0.9310344827586207 0.06896551724137931 0.6923076923076923 0.3076923076923077 0.9310344827586207 0.06896551724137931 0.6923076923076923 0.3076923076923077 0.9310344827586207 0.06896551724137931 0.6923076923076923 0.3076923076923077 0.9310344827586207 0.06896551724137931 0.6923076923076923 0.3076923076923077 0.9310344827586207 0.06896551724137931 0.6923076923076923 0.3076923076923077 0.9310344827586207 0.06896551724137931 0.6923076923076923 0.3076923076923077 0.9310344827586207 0.06896551724137931 0.6923076923076923 0.3076923076923077 0.08860759493670885 0.9113924050632911 0.1428571428571428 0.8571428571428572 0.08860759493670885 0.9113924050632911 0.1428571428571428 0.8571428571428572 0.08860759493670885 0.9113924050632911 0.1428571428571428 0.8571428571428572 0.08860759493670885 0.9113924050632911 0.1428571428571428 0.8571428571428572 0.08860759493670885 0.9113924050632911 0.1428571428571428 0.8571428571428572 0.08860759493670885 0.9113924050632911 0.1428571428571428 0.8571428571428572 0.08860759493670885 0.9113924050632911 0.1428571428571428 0.8571428571428572 0.08860759493670885 0.9113924050632911 0.1428571428571428 0.8571428571428572 0.08860759493670885 0.9113924050632911 0.1428571428571428 0.8571428571428572 0.08860759493670885 0.9113924050632911 0.1428571428571428 0.8571428571428572 0.08860759493670885 0.9113924050632911 0.1428571428571428 0.8571428571428572 0.08860759493670885 0.9113924050632911 0.1428571428571428 0.8571428571428572 0.08860759493670885 0.9113924050632911 0.1428571428571428 0.8571428571428572 0.08860759493670885 0.9113924050632911 0.1428571428571428 0.8571428571428572 0.08860759493670885 0.9113924050632911 0.1428571428571428 0.8571428571428572 0.08860759493670885 0.9113924050632911 0.1428571428571428 0.8571428571428572 0.2432432432432433 0.7567567567567567 0.07692307692307697 0.9230769230769231 0.2432432432432433 0.7567567567567567 0.07692307692307697 0.9230769230769231 0.2432432432432433 0.7567567567567567 0.07692307692307697 0.9230769230769231 0.2432432432432433 0.7567567567567567 0.07692307692307697 0.9230769230769231 0.2432432432432433 0.7567567567567567 0.07692307692307697 0.9230769230769231 0.2432432432432433 0.7567567567567567 0.07692307692307697 0.9230769230769231 0.2432432432432433 0.7567567567567567 0.07692307692307697 0.9230769230769231 0.2432432432432433 0.7567567567567567 0.07692307692307697 0.9230769230769231 0.2432432432432433 0.7567567567567567 0.07692307692307697 0.9230769230769231 0.2432432432432433 0.7567567567567567 0.07692307692307697 0.9230769230769231 0.2432432432432433 0.7567567567567567 0.07692307692307697 0.9230769230769231 0.2432432432432433 0.7567567567567567 0.07692307692307697 0.9230769230769231 0.2432432432432433 0.7567567567567567 0.07692307692307697 0.9230769230769231 0.2432432432432433 0.7567567567567567 0.07692307692307697 0.9230769230769231 0.2432432432432433 0.7567567567567567 0.07692307692307697 0.9230769230769231 0.2432432432432433 0.7567567567567567 0.07692307692307697 0.9230769230769231 0.2758620689655172 0.7241379310344828 0.4615384615384616 0.5384615384615384 0.2758620689655172 0.7241379310344828 0.4615384615384616 0.5384615384615384 0.2758620689655172 0.7241379310344828 0.4615384615384616 0.5384615384615384 0.2758620689655172 0.7241379310344828 0.4615384615384616 0.5384615384615384 0.2758620689655172 0.7241379310344828 0.4615384615384616 0.5384615384615384 0.2758620689655172 0.7241379310344828 0.4615384615384616 0.5384615384615384 0.2758620689655172 0.7241379310344828 0.4615384615384616 0.5384615384615384 0.2758620689655172 0.7241379310344828 0.4615384615384616 0.5384615384615384 0.2758620689655172 0.7241379310344828 0.4615384615384616 0.5384615384615384 0.2758620689655172 0.7241379310344828 0.4615384615384616 0.5384615384615384 0.2758620689655172 0.7241379310344828 0.4615384615384616 0.5384615384615384 0.2758620689655172 0.7241379310344828 0.4615384615384616 0.5384615384615384 0.2758620689655172 0.7241379310344828 0.4615384615384616 0.5384615384615384 0.2758620689655172 0.7241379310344828 0.4615384615384616 0.5384615384615384 0.2758620689655172 0.7241379310344828 0.4615384615384616 0.5384615384615384 0.2758620689655172 0.7241379310344828 0.4615384615384616 0.5384615384615384 0.4615384615384616 0.5384615384615384 0.1818181818181819 0.8181818181818182 0.4615384615384616 0.5384615384615384 0.1818181818181819 0.8181818181818182 0.4615384615384616 0.5384615384615384 0.1818181818181819 0.8181818181818182 0.4615384615384616 0.5384615384615384 0.1818181818181819 0.8181818181818182 0.4615384615384616 0.5384615384615384 0.1818181818181819 0.8181818181818182 0.4615384615384616 0.5384615384615384 0.1818181818181819 0.8181818181818182 0.4615384615384616 0.5384615384615384 0.1818181818181819 0.8181818181818182 0.4615384615384616 0.5384615384615384 0.1818181818181819 0.8181818181818182 0.4615384615384616 0.5384615384615384 0.1818181818181819 0.8181818181818182 0.4615384615384616 0.5384615384615384 0.1818181818181819 0.8181818181818182 0.4615384615384616 0.5384615384615384 0.1818181818181819 0.8181818181818182 0.4615384615384616 0.5384615384615384 0.1818181818181819 0.8181818181818182 0.4615384615384616 0.5384615384615384 0.1818181818181819 0.8181818181818182 0.4615384615384616 0.5384615384615384 0.1818181818181819 0.8181818181818182 0.4615384615384616 0.5384615384615384 0.1818181818181819 0.8181818181818182 0.4615384615384616 0.5384615384615384 0.1818181818181819 0.8181818181818182 0.4705882352941176 0.5294117647058824 0.6666666666666666 0.3333333333333334 0.4705882352941176 0.5294117647058824 0.6666666666666666 0.3333333333333334 0.4705882352941176 0.5294117647058824 0.6666666666666666 0.3333333333333334 0.4705882352941176 0.5294117647058824 0.6666666666666666 0.3333333333333334 0.4705882352941176 0.5294117647058824 0.6666666666666666 0.3333333333333334 0.4705882352941176 0.5294117647058824 0.6666666666666666 0.3333333333333334 0.4705882352941176 0.5294117647058824 0.6666666666666666 0.3333333333333334 0.4705882352941176 0.5294117647058824 0.6666666666666666 0.3333333333333334 0.4705882352941176 0.5294117647058824 0.6666666666666666 0.3333333333333334 0.4705882352941176 0.5294117647058824 0.6666666666666666 0.3333333333333334 0.4705882352941176 0.5294117647058824 0.6666666666666666 0.3333333333333334 0.4705882352941176 0.5294117647058824 0.6666666666666666 0.3333333333333334 0.4705882352941176 0.5294117647058824 0.6666666666666666 0.3333333333333334 0.4705882352941176 0.5294117647058824 0.6666666666666666 0.3333333333333334 0.4705882352941176 0.5294117647058824 0.6666666666666666 0.3333333333333334 0.4705882352941176 0.5294117647058824 0.6666666666666666 0.3333333333333334 0.4285714285714286 0.5714285714285715 0.6279069767441861 0.3720930232558139 0.4285714285714286 0.5714285714285715 0.6279069767441861 0.3720930232558139 0.4285714285714286 0.5714285714285715 0.6279069767441861 0.3720930232558139 0.4285714285714286 0.5714285714285715 0.6279069767441861 0.3720930232558139 0.4285714285714286 0.5714285714285715 0.6279069767441861 0.3720930232558139 0.4285714285714286 0.5714285714285715 0.6279069767441861 0.3720930232558139 0.4285714285714286 0.5714285714285715 0.6279069767441861 0.3720930232558139 0.4285714285714286 0.5714285714285715 0.6279069767441861 0.3720930232558139 0.4285714285714286 0.5714285714285715 0.6279069767441861 0.3720930232558139 0.4285714285714286 0.5714285714285715 0.6279069767441861 0.3720930232558139 0.4285714285714286 0.5714285714285715 0.6279069767441861 0.3720930232558139 0.4285714285714286 0.5714285714285715 0.6279069767441861 0.3720930232558139 0.4285714285714286 0.5714285714285715 0.6279069767441861 0.3720930232558139 0.4285714285714286 0.5714285714285715 0.6279069767441861 0.3720930232558139 0.4285714285714286 0.5714285714285715 0.6279069767441861 0.3720930232558139 0.4285714285714286 0.5714285714285715 0.6279069767441861 0.3720930232558139 0.6363636363636365 0.3636363636363636 0.7313432835820896 0.2686567164179104 0.6363636363636365 0.3636363636363636 0.7313432835820896 0.2686567164179104 0.6363636363636365 0.3636363636363636 0.7313432835820896 0.2686567164179104 0.6363636363636365 0.3636363636363636 0.7313432835820896 0.2686567164179104 0.6363636363636365 0.3636363636363636 0.7313432835820896 0.2686567164179104 0.6363636363636365 0.3636363636363636 0.7313432835820896 0.2686567164179104 0.6363636363636365 0.3636363636363636 0.7313432835820896 0.2686567164179104 0.6363636363636365 0.3636363636363636 0.7313432835820896 0.2686567164179104 0.6363636363636365 0.3636363636363636 0.7313432835820896 0.2686567164179104 0.6363636363636365 0.3636363636363636 0.7313432835820896 0.2686567164179104 0.6363636363636365 0.3636363636363636 0.7313432835820896 0.2686567164179104 0.6363636363636365 0.3636363636363636 0.7313432835820896 0.2686567164179104 0.6363636363636365 0.3636363636363636 0.7313432835820896 0.2686567164179104 0.6363636363636365 0.3636363636363636 0.7313432835820896 0.2686567164179104 0.6363636363636365 0.3636363636363636 0.7313432835820896 0.2686567164179104 0.6363636363636365 0.3636363636363636 0.7313432835820896 0.2686567164179104 0.6666666666666666 0.3333333333333333 0.8181818181818182 0.1818181818181818 0.6666666666666666 0.3333333333333333 0.8181818181818182 0.1818181818181818 0.6666666666666666 0.3333333333333333 0.8181818181818182 0.1818181818181818 0.6666666666666666 0.3333333333333333 0.8181818181818182 0.1818181818181818 0.6666666666666666 0.3333333333333333 0.8181818181818182 0.1818181818181818 0.6666666666666666 0.3333333333333333 0.8181818181818182 0.1818181818181818 0.6666666666666666 0.3333333333333333 0.8181818181818182 0.1818181818181818 0.6666666666666666 0.3333333333333333 0.8181818181818182 0.1818181818181818 0.6666666666666666 0.3333333333333333 0.8181818181818182 0.1818181818181818 0.6666666666666666 0.3333333333333333 0.8181818181818182 0.1818181818181818 0.6666666666666666 0.3333333333333333 0.8181818181818182 0.1818181818181818 0.6666666666666666 0.3333333333333333 0.8181818181818182 0.1818181818181818 0.6666666666666666 0.3333333333333333 0.8181818181818182 0.1818181818181818 0.6666666666666666 0.3333333333333333 0.8181818181818182 0.1818181818181818 0.6666666666666666 0.3333333333333333 0.8181818181818182 0.1818181818181818 0.6666666666666666 0.3333333333333333 0.8181818181818182 0.1818181818181818 0.870967741935484 0.1290322580645162 0.9130434782608696 0.08695652173913043 0.870967741935484 0.1290322580645162 0.9130434782608696 0.08695652173913043 0.870967741935484 0.1290322580645162 0.9130434782608696 0.08695652173913043 0.870967741935484 0.1290322580645162 0.9130434782608696 0.08695652173913043 0.870967741935484 0.1290322580645162 0.9130434782608696 0.08695652173913043 0.870967741935484 0.1290322580645162 0.9130434782608696 0.08695652173913043 0.870967741935484 0.1290322580645162 0.9130434782608696 0.08695652173913043 0.870967741935484 0.1290322580645162 0.9130434782608696 0.08695652173913043 0.870967741935484 0.1290322580645162 0.9130434782608696 0.08695652173913043 0.870967741935484 0.1290322580645162 0.9130434782608696 0.08695652173913043 0.870967741935484 0.1290322580645162 0.9130434782608696 0.08695652173913043 0.870967741935484 0.1290322580645162 0.9130434782608696 0.08695652173913043 0.870967741935484 0.1290322580645162 0.9130434782608696 0.08695652173913043 0.870967741935484 0.1290322580645162 0.9130434782608696 0.08695652173913043 0.870967741935484 0.1290322580645162 0.9130434782608696 0.08695652173913043 0.870967741935484 0.1290322580645162 0.9130434782608696 0.08695652173913043 0.08474576271186442 0.9152542372881357 0.1219512195121951 0.878048780487805 0.08474576271186442 0.9152542372881357 0.1219512195121951 0.878048780487805 0.08474576271186442 0.9152542372881357 0.1219512195121951 0.878048780487805 0.08474576271186442 0.9152542372881357 0.1219512195121951 0.878048780487805 0.08474576271186442 0.9152542372881357 0.1219512195121951 0.878048780487805 0.08474576271186442 0.9152542372881357 0.1219512195121951 0.878048780487805 0.08474576271186442 0.9152542372881357 0.1219512195121951 0.878048780487805 0.08474576271186442 0.9152542372881357 0.1219512195121951 0.878048780487805 0.08474576271186442 0.9152542372881357 0.1219512195121951 0.878048780487805 0.08474576271186442 0.9152542372881357 0.1219512195121951 0.878048780487805 0.08474576271186442 0.9152542372881357 0.1219512195121951 0.878048780487805 0.08474576271186442 0.9152542372881357 0.1219512195121951 0.878048780487805 0.08474576271186442 0.9152542372881357 0.1219512195121951 0.878048780487805 0.08474576271186442 0.9152542372881357 0.1219512195121951 0.878048780487805 0.08474576271186442 0.9152542372881357 0.1219512195121951 0.878048780487805 0.08474576271186442 0.9152542372881357 0.1219512195121951 0.878048780487805 0.1794871794871795 0.8205128205128207 0.2727272727272727 0.7272727272727273 0.1794871794871795 0.8205128205128207 0.2727272727272727 0.7272727272727273 0.1794871794871795 0.8205128205128207 0.2727272727272727 0.7272727272727273 0.1794871794871795 0.8205128205128207 0.2727272727272727 0.7272727272727273 0.1794871794871795 0.8205128205128207 0.2727272727272727 0.7272727272727273 0.1794871794871795 0.8205128205128207 0.2727272727272727 0.7272727272727273 0.1794871794871795 0.8205128205128207 0.2727272727272727 0.7272727272727273 0.1794871794871795 0.8205128205128207 0.2727272727272727 0.7272727272727273 0.1794871794871795 0.8205128205128207 0.2727272727272727 0.7272727272727273 0.1794871794871795 0.8205128205128207 0.2727272727272727 0.7272727272727273 0.1794871794871795 0.8205128205128207 0.2727272727272727 0.7272727272727273 0.1794871794871795 0.8205128205128207 0.2727272727272727 0.7272727272727273 0.1794871794871795 0.8205128205128207 0.2727272727272727 0.7272727272727273 0.1794871794871795 0.8205128205128207 0.2727272727272727 0.7272727272727273 0.1794871794871795 0.8205128205128207 0.2727272727272727 0.7272727272727273 0.1794871794871795 0.8205128205128207 0.2727272727272727 0.7272727272727273 0.2631578947368421 0.736842105263158 0.3488372093023256 0.6511627906976744 0.2631578947368421 0.736842105263158 0.3488372093023256 0.6511627906976744 0.2631578947368421 0.736842105263158 0.3488372093023256 0.6511627906976744 0.2631578947368421 0.736842105263158 0.3488372093023256 0.6511627906976744 0.2631578947368421 0.736842105263158 0.3488372093023256 0.6511627906976744 0.2631578947368421 0.736842105263158 0.3488372093023256 0.6511627906976744 0.2631578947368421 0.736842105263158 0.3488372093023256 0.6511627906976744 0.2631578947368421 0.736842105263158 0.3488372093023256 0.6511627906976744 0.2631578947368421 0.736842105263158 0.3488372093023256 0.6511627906976744 0.2631578947368421 0.736842105263158 0.3488372093023256 0.6511627906976744 0.2631578947368421 0.736842105263158 0.3488372093023256 0.6511627906976744 0.2631578947368421 0.736842105263158 0.3488372093023256 0.6511627906976744 0.2631578947368421 0.736842105263158 0.3488372093023256 0.6511627906976744 0.2631578947368421 0.736842105263158 0.3488372093023256 0.6511627906976744 0.2631578947368421 0.736842105263158 0.3488372093023256 0.6511627906976744 0.2631578947368421 0.736842105263158 0.3488372093023256 0.6511627906976744 0.3684210526315789 0.6315789473684211 0.4999999999999999 0.5000000000000001 0.3684210526315789 0.6315789473684211 0.4999999999999999 0.5000000000000001 0.3684210526315789 0.6315789473684211 0.4999999999999999 0.5000000000000001 0.3684210526315789 0.6315789473684211 0.4999999999999999 0.5000000000000001 0.3684210526315789 0.6315789473684211 0.4999999999999999 0.5000000000000001 0.3684210526315789 0.6315789473684211 0.4999999999999999 0.5000000000000001 0.3684210526315789 0.6315789473684211 0.4999999999999999 0.5000000000000001 0.3684210526315789 0.6315789473684211 0.4999999999999999 0.5000000000000001 0.3684210526315789 0.6315789473684211 0.4999999999999999 0.5000000000000001 0.3684210526315789 0.6315789473684211 0.4999999999999999 0.5000000000000001 0.3684210526315789 0.6315789473684211 0.4999999999999999 0.5000000000000001 0.3684210526315789 0.6315789473684211 0.4999999999999999 0.5000000000000001 0.3684210526315789 0.6315789473684211 0.4999999999999999 0.5000000000000001 0.3684210526315789 0.6315789473684211 0.4999999999999999 0.5000000000000001 0.3684210526315789 0.6315789473684211 0.4999999999999999 0.5000000000000001 0.3684210526315789 0.6315789473684211 0.4999999999999999 0.5000000000000001 0.6 0.4 0.2 0.8 0.6 0.4 0.2 0.8 0.6 0.4 0.2 0.8 0.6 0.4 0.2 0.8 0.6 0.4 0.2 0.8 0.6 0.4 0.2 0.8 0.6 0.4 0.2 0.8 0.6 0.4 0.2 0.8 0.6 0.4 0.2 0.8 0.6 0.4 0.2 0.8 0.6 0.4 0.2 0.8 0.6 0.4 0.2 0.8 0.6 0.4 0.2 0.8 0.6 0.4 0.2 0.8 0.6 0.4 0.2 0.8 0.6 0.4 0.2 0.8 0.5675675675675675 0.4324324324324325 0.6923076923076923 0.3076923076923078 0.5675675675675675 0.4324324324324325 0.6923076923076923 0.3076923076923078 0.5675675675675675 0.4324324324324325 0.6923076923076923 0.3076923076923078 0.5675675675675675 0.4324324324324325 0.6923076923076923 0.3076923076923078 0.5675675675675675 0.4324324324324325 0.6923076923076923 0.3076923076923078 0.5675675675675675 0.4324324324324325 0.6923076923076923 0.3076923076923078 0.5675675675675675 0.4324324324324325 0.6923076923076923 0.3076923076923078 0.5675675675675675 0.4324324324324325 0.6923076923076923 0.3076923076923078 0.5675675675675675 0.4324324324324325 0.6923076923076923 0.3076923076923078 0.5675675675675675 0.4324324324324325 0.6923076923076923 0.3076923076923078 0.5675675675675675 0.4324324324324325 0.6923076923076923 0.3076923076923078 0.5675675675675675 0.4324324324324325 0.6923076923076923 0.3076923076923078 0.5675675675675675 0.4324324324324325 0.6923076923076923 0.3076923076923078 0.5675675675675675 0.4324324324324325 0.6923076923076923 0.3076923076923078 0.5675675675675675 0.4324324324324325 0.6923076923076923 0.3076923076923078 0.5675675675675675 0.4324324324324325 0.6923076923076923 0.3076923076923078 0.7777777777777778 0.2222222222222222 0.3684210526315789 0.6315789473684211 0.7777777777777778 0.2222222222222222 0.3684210526315789 0.6315789473684211 0.7777777777777778 0.2222222222222222 0.3684210526315789 0.6315789473684211 0.7777777777777778 0.2222222222222222 0.3684210526315789 0.6315789473684211 0.7777777777777778 0.2222222222222222 0.3684210526315789 0.6315789473684211 0.7777777777777778 0.2222222222222222 0.3684210526315789 0.6315789473684211 0.7777777777777778 0.2222222222222222 0.3684210526315789 0.6315789473684211 0.7777777777777778 0.2222222222222222 0.3684210526315789 0.6315789473684211 0.7777777777777778 0.2222222222222222 0.3684210526315789 0.6315789473684211 0.7777777777777778 0.2222222222222222 0.3684210526315789 0.6315789473684211 0.7777777777777778 0.2222222222222222 0.3684210526315789 0.6315789473684211 0.7777777777777778 0.2222222222222222 0.3684210526315789 0.6315789473684211 0.7777777777777778 0.2222222222222222 0.3684210526315789 0.6315789473684211 0.7777777777777778 0.2222222222222222 0.3684210526315789 0.6315789473684211 0.7777777777777778 0.2222222222222222 0.3684210526315789 0.6315789473684211 0.7777777777777778 0.2222222222222222 0.3684210526315789 0.6315789473684211 0.7777777777777777 0.2222222222222223 0.8571428571428571 0.1428571428571429 0.7777777777777777 0.2222222222222223 0.8571428571428571 0.1428571428571429 0.7777777777777777 0.2222222222222223 0.8571428571428571 0.1428571428571429 0.7777777777777777 0.2222222222222223 0.8571428571428571 0.1428571428571429 0.7777777777777777 0.2222222222222223 0.8571428571428571 0.1428571428571429 0.7777777777777777 0.2222222222222223 0.8571428571428571 0.1428571428571429 0.7777777777777777 0.2222222222222223 0.8571428571428571 0.1428571428571429 0.7777777777777777 0.2222222222222223 0.8571428571428571 0.1428571428571429 0.7777777777777777 0.2222222222222223 0.8571428571428571 0.1428571428571429 0.7777777777777777 0.2222222222222223 0.8571428571428571 0.1428571428571429 0.7777777777777777 0.2222222222222223 0.8571428571428571 0.1428571428571429 0.7777777777777777 0.2222222222222223 0.8571428571428571 0.1428571428571429 0.7777777777777777 0.2222222222222223 0.8571428571428571 0.1428571428571429 0.7777777777777777 0.2222222222222223 0.8571428571428571 0.1428571428571429 0.7777777777777777 0.2222222222222223 0.8571428571428571 0.1428571428571429 0.7777777777777777 0.2222222222222223 0.8571428571428571 0.1428571428571429 0.9204545454545455 0.07954545454545453 0.7500000000000001 0.2499999999999999 0.9204545454545455 0.07954545454545453 0.7500000000000001 0.2499999999999999 0.9204545454545455 0.07954545454545453 0.7500000000000001 0.2499999999999999 0.9204545454545455 0.07954545454545453 0.7500000000000001 0.2499999999999999 0.9204545454545455 0.07954545454545453 0.7500000000000001 0.2499999999999999 0.9204545454545455 0.07954545454545453 0.7500000000000001 0.2499999999999999 0.9204545454545455 0.07954545454545453 0.7500000000000001 0.2499999999999999 0.9204545454545455 0.07954545454545453 0.7500000000000001 0.2499999999999999 0.9204545454545455 0.07954545454545453 0.7500000000000001 0.2499999999999999 0.9204545454545455 0.07954545454545453 0.7500000000000001 0.2499999999999999 0.9204545454545455 0.07954545454545453 0.7500000000000001 0.2499999999999999 0.9204545454545455 0.07954545454545453 0.7500000000000001 0.2499999999999999 0.9204545454545455 0.07954545454545453 0.7500000000000001 0.2499999999999999 0.9204545454545455 0.07954545454545453 0.7500000000000001 0.2499999999999999 0.9204545454545455 0.07954545454545453 0.7500000000000001 0.2499999999999999 0.9204545454545455 0.07954545454545453 0.7500000000000001 0.2499999999999999 0.0898876404494382 0.9101123595505617 0.1818181818181818 0.8181818181818183 0.0898876404494382 0.9101123595505617 0.1818181818181818 0.8181818181818183 0.0898876404494382 0.9101123595505617 0.1818181818181818 0.8181818181818183 0.0898876404494382 0.9101123595505617 0.1818181818181818 0.8181818181818183 0.0898876404494382 0.9101123595505617 0.1818181818181818 0.8181818181818183 0.0898876404494382 0.9101123595505617 0.1818181818181818 0.8181818181818183 0.0898876404494382 0.9101123595505617 0.1818181818181818 0.8181818181818183 0.0898876404494382 0.9101123595505617 0.1818181818181818 0.8181818181818183 0.0898876404494382 0.9101123595505617 0.1818181818181818 0.8181818181818183 0.0898876404494382 0.9101123595505617 0.1818181818181818 0.8181818181818183 0.0898876404494382 0.9101123595505617 0.1818181818181818 0.8181818181818183 0.0898876404494382 0.9101123595505617 0.1818181818181818 0.8181818181818183 0.0898876404494382 0.9101123595505617 0.1818181818181818 0.8181818181818183 0.0898876404494382 0.9101123595505617 0.1818181818181818 0.8181818181818183 0.0898876404494382 0.9101123595505617 0.1818181818181818 0.8181818181818183 0.0898876404494382 0.9101123595505617 0.1818181818181818 0.8181818181818183 0.2432432432432433 0.7567567567567567 0.07692307692307697 0.9230769230769231 0.2432432432432433 0.7567567567567567 0.07692307692307697 0.9230769230769231 0.2432432432432433 0.7567567567567567 0.07692307692307697 0.9230769230769231 0.2432432432432433 0.7567567567567567 0.07692307692307697 0.9230769230769231 0.2432432432432433 0.7567567567567567 0.07692307692307697 0.9230769230769231 0.2432432432432433 0.7567567567567567 0.07692307692307697 0.9230769230769231 0.2432432432432433 0.7567567567567567 0.07692307692307697 0.9230769230769231 0.2432432432432433 0.7567567567567567 0.07692307692307697 0.9230769230769231 0.2432432432432433 0.7567567567567567 0.07692307692307697 0.9230769230769231 0.2432432432432433 0.7567567567567567 0.07692307692307697 0.9230769230769231 0.2432432432432433 0.7567567567567567 0.07692307692307697 0.9230769230769231 0.2432432432432433 0.7567567567567567 0.07692307692307697 0.9230769230769231 0.2432432432432433 0.7567567567567567 0.07692307692307697 0.9230769230769231 0.2432432432432433 0.7567567567567567 0.07692307692307697 0.9230769230769231 0.2432432432432433 0.7567567567567567 0.07692307692307697 0.9230769230769231 0.2432432432432433 0.7567567567567567 0.07692307692307697 0.9230769230769231 0.2758620689655172 0.7241379310344828 0.4615384615384616 0.5384615384615384 0.2758620689655172 0.7241379310344828 0.4615384615384616 0.5384615384615384 0.2758620689655172 0.7241379310344828 0.4615384615384616 0.5384615384615384 0.2758620689655172 0.7241379310344828 0.4615384615384616 0.5384615384615384 0.2758620689655172 0.7241379310344828 0.4615384615384616 0.5384615384615384 0.2758620689655172 0.7241379310344828 0.4615384615384616 0.5384615384615384 0.2758620689655172 0.7241379310344828 0.4615384615384616 0.5384615384615384 0.2758620689655172 0.7241379310344828 0.4615384615384616 0.5384615384615384 0.2758620689655172 0.7241379310344828 0.4615384615384616 0.5384615384615384 0.2758620689655172 0.7241379310344828 0.4615384615384616 0.5384615384615384 0.2758620689655172 0.7241379310344828 0.4615384615384616 0.5384615384615384 0.2758620689655172 0.7241379310344828 0.4615384615384616 0.5384615384615384 0.2758620689655172 0.7241379310344828 0.4615384615384616 0.5384615384615384 0.2758620689655172 0.7241379310344828 0.4615384615384616 0.5384615384615384 0.2758620689655172 0.7241379310344828 0.4615384615384616 0.5384615384615384 0.2758620689655172 0.7241379310344828 0.4615384615384616 0.5384615384615384 0.25 0.75 0.4285714285714286 0.5714285714285714 0.25 0.75 0.4285714285714286 0.5714285714285714 0.25 0.75 0.4285714285714286 0.5714285714285714 0.25 0.75 0.4285714285714286 0.5714285714285714 0.25 0.75 0.4285714285714286 0.5714285714285714 0.25 0.75 0.4285714285714286 0.5714285714285714 0.25 0.75 0.4285714285714286 0.5714285714285714 0.25 0.75 0.4285714285714286 0.5714285714285714 0.25 0.75 0.4285714285714286 0.5714285714285714 0.25 0.75 0.4285714285714286 0.5714285714285714 0.25 0.75 0.4285714285714286 0.5714285714285714 0.25 0.75 0.4285714285714286 0.5714285714285714 0.25 0.75 0.4285714285714286 0.5714285714285714 0.25 0.75 0.4285714285714286 0.5714285714285714 0.25 0.75 0.4285714285714286 0.5714285714285714 0.25 0.75 0.4285714285714286 0.5714285714285714 0.4285714285714285 0.5714285714285715 0.5384615384615385 0.4615384615384616 0.4285714285714285 0.5714285714285715 0.5384615384615385 0.4615384615384616 0.4285714285714285 0.5714285714285715 0.5384615384615385 0.4615384615384616 0.4285714285714285 0.5714285714285715 0.5384615384615385 0.4615384615384616 0.4285714285714285 0.5714285714285715 0.5384615384615385 0.4615384615384616 0.4285714285714285 0.5714285714285715 0.5384615384615385 0.4615384615384616 0.4285714285714285 0.5714285714285715 0.5384615384615385 0.4615384615384616 0.4285714285714285 0.5714285714285715 0.5384615384615385 0.4615384615384616 0.4285714285714285 0.5714285714285715 0.5384615384615385 0.4615384615384616 0.4285714285714285 0.5714285714285715 0.5384615384615385 0.4615384615384616 0.4285714285714285 0.5714285714285715 0.5384615384615385 0.4615384615384616 0.4285714285714285 0.5714285714285715 0.5384615384615385 0.4615384615384616 0.4285714285714285 0.5714285714285715 0.5384615384615385 0.4615384615384616 0.4285714285714285 0.5714285714285715 0.5384615384615385 0.4615384615384616 0.4285714285714285 0.5714285714285715 0.5384615384615385 0.4615384615384616 0.4285714285714285 0.5714285714285715 0.5384615384615385 0.4615384615384616 0.4285714285714286 0.5714285714285715 0.6279069767441861 0.3720930232558139 0.4285714285714286 0.5714285714285715 0.6279069767441861 0.3720930232558139 0.4285714285714286 0.5714285714285715 0.6279069767441861 0.3720930232558139 0.4285714285714286 0.5714285714285715 0.6279069767441861 0.3720930232558139 0.4285714285714286 0.5714285714285715 0.6279069767441861 0.3720930232558139 0.4285714285714286 0.5714285714285715 0.6279069767441861 0.3720930232558139 0.4285714285714286 0.5714285714285715 0.6279069767441861 0.3720930232558139 0.4285714285714286 0.5714285714285715 0.6279069767441861 0.3720930232558139 0.4285714285714286 0.5714285714285715 0.6279069767441861 0.3720930232558139 0.4285714285714286 0.5714285714285715 0.6279069767441861 0.3720930232558139 0.4285714285714286 0.5714285714285715 0.6279069767441861 0.3720930232558139 0.4285714285714286 0.5714285714285715 0.6279069767441861 0.3720930232558139 0.4285714285714286 0.5714285714285715 0.6279069767441861 0.3720930232558139 0.4285714285714286 0.5714285714285715 0.6279069767441861 0.3720930232558139 0.4285714285714286 0.5714285714285715 0.6279069767441861 0.3720930232558139 0.4285714285714286 0.5714285714285715 0.6279069767441861 0.3720930232558139 0.6363636363636365 0.3636363636363636 0.7313432835820896 0.2686567164179104 0.6363636363636365 0.3636363636363636 0.7313432835820896 0.2686567164179104 0.6363636363636365 0.3636363636363636 0.7313432835820896 0.2686567164179104 0.6363636363636365 0.3636363636363636 0.7313432835820896 0.2686567164179104 0.6363636363636365 0.3636363636363636 0.7313432835820896 0.2686567164179104 0.6363636363636365 0.3636363636363636 0.7313432835820896 0.2686567164179104 0.6363636363636365 0.3636363636363636 0.7313432835820896 0.2686567164179104 0.6363636363636365 0.3636363636363636 0.7313432835820896 0.2686567164179104 0.6363636363636365 0.3636363636363636 0.7313432835820896 0.2686567164179104 0.6363636363636365 0.3636363636363636 0.7313432835820896 0.2686567164179104 0.6363636363636365 0.3636363636363636 0.7313432835820896 0.2686567164179104 0.6363636363636365 0.3636363636363636 0.7313432835820896 0.2686567164179104 0.6363636363636365 0.3636363636363636 0.7313432835820896 0.2686567164179104 0.6363636363636365 0.3636363636363636 0.7313432835820896 0.2686567164179104 0.6363636363636365 0.3636363636363636 0.7313432835820896 0.2686567164179104 0.6363636363636365 0.3636363636363636 0.7313432835820896 0.2686567164179104 0.7692307692307693 0.2307692307692308 0.8333333333333333 0.1666666666666667 0.7692307692307693 0.2307692307692308 0.8333333333333333 0.1666666666666667 0.7692307692307693 0.2307692307692308 0.8333333333333333 0.1666666666666667 0.7692307692307693 0.2307692307692308 0.8333333333333333 0.1666666666666667 0.7692307692307693 0.2307692307692308 0.8333333333333333 0.1666666666666667 0.7692307692307693 0.2307692307692308 0.8333333333333333 0.1666666666666667 0.7692307692307693 0.2307692307692308 0.8333333333333333 0.1666666666666667 0.7692307692307693 0.2307692307692308 0.8333333333333333 0.1666666666666667 0.7692307692307693 0.2307692307692308 0.8333333333333333 0.1666666666666667 0.7692307692307693 0.2307692307692308 0.8333333333333333 0.1666666666666667 0.7692307692307693 0.2307692307692308 0.8333333333333333 0.1666666666666667 0.7692307692307693 0.2307692307692308 0.8333333333333333 0.1666666666666667 0.7692307692307693 0.2307692307692308 0.8333333333333333 0.1666666666666667 0.7692307692307693 0.2307692307692308 0.8333333333333333 0.1666666666666667 0.7692307692307693 0.2307692307692308 0.8333333333333333 0.1666666666666667 0.7692307692307693 0.2307692307692308 0.8333333333333333 0.1666666666666667 0.887323943661972 0.1126760563380282 0.9310344827586207 0.06896551724137931 0.887323943661972 0.1126760563380282 0.9310344827586207 0.06896551724137931 0.887323943661972 0.1126760563380282 0.9310344827586207 0.06896551724137931 0.887323943661972 0.1126760563380282 0.9310344827586207 0.06896551724137931 0.887323943661972 0.1126760563380282 0.9310344827586207 0.06896551724137931 0.887323943661972 0.1126760563380282 0.9310344827586207 0.06896551724137931 0.887323943661972 0.1126760563380282 0.9310344827586207 0.06896551724137931 0.887323943661972 0.1126760563380282 0.9310344827586207 0.06896551724137931 0.887323943661972 0.1126760563380282 0.9310344827586207 0.06896551724137931 0.887323943661972 0.1126760563380282 0.9310344827586207 0.06896551724137931 0.887323943661972 0.1126760563380282 0.9310344827586207 0.06896551724137931 0.887323943661972 0.1126760563380282 0.9310344827586207 0.06896551724137931 0.887323943661972 0.1126760563380282 0.9310344827586207 0.06896551724137931 0.887323943661972 0.1126760563380282 0.9310344827586207 0.06896551724137931 0.887323943661972 0.1126760563380282 0.9310344827586207 0.06896551724137931 0.887323943661972 0.1126760563380282 0.9310344827586207 0.06896551724137931 0.08474576271186442 0.9152542372881357 0.1219512195121951 0.878048780487805 0.08474576271186442 0.9152542372881357 0.1219512195121951 0.878048780487805 0.08474576271186442 0.9152542372881357 0.1219512195121951 0.878048780487805 0.08474576271186442 0.9152542372881357 0.1219512195121951 0.878048780487805 0.08474576271186442 0.9152542372881357 0.1219512195121951 0.878048780487805 0.08474576271186442 0.9152542372881357 0.1219512195121951 0.878048780487805 0.08474576271186442 0.9152542372881357 0.1219512195121951 0.878048780487805 0.08474576271186442 0.9152542372881357 0.1219512195121951 0.878048780487805 0.08474576271186442 0.9152542372881357 0.1219512195121951 0.878048780487805 0.08474576271186442 0.9152542372881357 0.1219512195121951 0.878048780487805 0.08474576271186442 0.9152542372881357 0.1219512195121951 0.878048780487805 0.08474576271186442 0.9152542372881357 0.1219512195121951 0.878048780487805 0.08474576271186442 0.9152542372881357 0.1219512195121951 0.878048780487805 0.08474576271186442 0.9152542372881357 0.1219512195121951 0.878048780487805 0.08474576271186442 0.9152542372881357 0.1219512195121951 0.878048780487805 0.08474576271186442 0.9152542372881357 0.1219512195121951 0.878048780487805 0.1794871794871795 0.8205128205128207 0.2727272727272727 0.7272727272727273 0.1794871794871795 0.8205128205128207 0.2727272727272727 0.7272727272727273 0.1794871794871795 0.8205128205128207 0.2727272727272727 0.7272727272727273 0.1794871794871795 0.8205128205128207 0.2727272727272727 0.7272727272727273 0.1794871794871795 0.8205128205128207 0.2727272727272727 0.7272727272727273 0.1794871794871795 0.8205128205128207 0.2727272727272727 0.7272727272727273 0.1794871794871795 0.8205128205128207 0.2727272727272727 0.7272727272727273 0.1794871794871795 0.8205128205128207 0.2727272727272727 0.7272727272727273 0.1794871794871795 0.8205128205128207 0.2727272727272727 0.7272727272727273 0.1794871794871795 0.8205128205128207 0.2727272727272727 0.7272727272727273 0.1794871794871795 0.8205128205128207 0.2727272727272727 0.7272727272727273 0.1794871794871795 0.8205128205128207 0.2727272727272727 0.7272727272727273 0.1794871794871795 0.8205128205128207 0.2727272727272727 0.7272727272727273 0.1794871794871795 0.8205128205128207 0.2727272727272727 0.7272727272727273 0.1794871794871795 0.8205128205128207 0.2727272727272727 0.7272727272727273 0.1794871794871795 0.8205128205128207 0.2727272727272727 0.7272727272727273 0.391304347826087 0.608695652173913 0.09677419354838711 0.9032258064516129 0.391304347826087 0.608695652173913 0.09677419354838711 0.9032258064516129 0.391304347826087 0.608695652173913 0.09677419354838711 0.9032258064516129 0.391304347826087 0.608695652173913 0.09677419354838711 0.9032258064516129 0.391304347826087 0.608695652173913 0.09677419354838711 0.9032258064516129 0.391304347826087 0.608695652173913 0.09677419354838711 0.9032258064516129 0.391304347826087 0.608695652173913 0.09677419354838711 0.9032258064516129 0.391304347826087 0.608695652173913 0.09677419354838711 0.9032258064516129 0.391304347826087 0.608695652173913 0.09677419354838711 0.9032258064516129 0.391304347826087 0.608695652173913 0.09677419354838711 0.9032258064516129 0.391304347826087 0.608695652173913 0.09677419354838711 0.9032258064516129 0.391304347826087 0.608695652173913 0.09677419354838711 0.9032258064516129 0.391304347826087 0.608695652173913 0.09677419354838711 0.9032258064516129 0.391304347826087 0.608695652173913 0.09677419354838711 0.9032258064516129 0.391304347826087 0.608695652173913 0.09677419354838711 0.9032258064516129 0.391304347826087 0.608695652173913 0.09677419354838711 0.9032258064516129 0.3684210526315789 0.6315789473684211 0.4999999999999999 0.5000000000000001 0.3684210526315789 0.6315789473684211 0.4999999999999999 0.5000000000000001 0.3684210526315789 0.6315789473684211 0.4999999999999999 0.5000000000000001 0.3684210526315789 0.6315789473684211 0.4999999999999999 0.5000000000000001 0.3684210526315789 0.6315789473684211 0.4999999999999999 0.5000000000000001 0.3684210526315789 0.6315789473684211 0.4999999999999999 0.5000000000000001 0.3684210526315789 0.6315789473684211 0.4999999999999999 0.5000000000000001 0.3684210526315789 0.6315789473684211 0.4999999999999999 0.5000000000000001 0.3684210526315789 0.6315789473684211 0.4999999999999999 0.5000000000000001 0.3684210526315789 0.6315789473684211 0.4999999999999999 0.5000000000000001 0.3684210526315789 0.6315789473684211 0.4999999999999999 0.5000000000000001 0.3684210526315789 0.6315789473684211 0.4999999999999999 0.5000000000000001 0.3684210526315789 0.6315789473684211 0.4999999999999999 0.5000000000000001 0.3684210526315789 0.6315789473684211 0.4999999999999999 0.5000000000000001 0.3684210526315789 0.6315789473684211 0.4999999999999999 0.5000000000000001 0.3684210526315789 0.6315789473684211 0.4999999999999999 0.5000000000000001 0.6 0.4 0.2 0.8 0.6 0.4 0.2 0.8 0.6 0.4 0.2 0.8 0.6 0.4 0.2 0.8 0.6 0.4 0.2 0.8 0.6 0.4 0.2 0.8 0.6 0.4 0.2 0.8 0.6 0.4 0.2 0.8 0.6 0.4 0.2 0.8 0.6 0.4 0.2 0.8 0.6 0.4 0.2 0.8 0.6 0.4 0.2 0.8 0.6 0.4 0.2 0.8 0.6 0.4 0.2 0.8 0.6 0.4 0.2 0.8 0.6 0.4 0.2 0.8 0.5675675675675675 0.4324324324324325 0.6923076923076923 0.3076923076923078 0.5675675675675675 0.4324324324324325 0.6923076923076923 0.3076923076923078 0.5675675675675675 0.4324324324324325 0.6923076923076923 0.3076923076923078 0.5675675675675675 0.4324324324324325 0.6923076923076923 0.3076923076923078 0.5675675675675675 0.4324324324324325 0.6923076923076923 0.3076923076923078 0.5675675675675675 0.4324324324324325 0.6923076923076923 0.3076923076923078 0.5675675675675675 0.4324324324324325 0.6923076923076923 0.3076923076923078 0.5675675675675675 0.4324324324324325 0.6923076923076923 0.3076923076923078 0.5675675675675675 0.4324324324324325 0.6923076923076923 0.3076923076923078 0.5675675675675675 0.4324324324324325 0.6923076923076923 0.3076923076923078 0.5675675675675675 0.4324324324324325 0.6923076923076923 0.3076923076923078 0.5675675675675675 0.4324324324324325 0.6923076923076923 0.3076923076923078 0.5675675675675675 0.4324324324324325 0.6923076923076923 0.3076923076923078 0.5675675675675675 0.4324324324324325 0.6923076923076923 0.3076923076923078 0.5675675675675675 0.4324324324324325 0.6923076923076923 0.3076923076923078 0.5675675675675675 0.4324324324324325 0.6923076923076923 0.3076923076923078 0.75 0.25 0.4374999999999999 0.5625000000000001 0.75 0.25 0.4374999999999999 0.5625000000000001 0.75 0.25 0.4374999999999999 0.5625000000000001 0.75 0.25 0.4374999999999999 0.5625000000000001 0.75 0.25 0.4374999999999999 0.5625000000000001 0.75 0.25 0.4374999999999999 0.5625000000000001 0.75 0.25 0.4374999999999999 0.5625000000000001 0.75 0.25 0.4374999999999999 0.5625000000000001 0.75 0.25 0.4374999999999999 0.5625000000000001 0.75 0.25 0.4374999999999999 0.5625000000000001 0.75 0.25 0.4374999999999999 0.5625000000000001 0.75 0.25 0.4374999999999999 0.5625000000000001 0.75 0.25 0.4374999999999999 0.5625000000000001 0.75 0.25 0.4374999999999999 0.5625000000000001 0.75 0.25 0.4374999999999999 0.5625000000000001 0.75 0.25 0.4374999999999999 0.5625000000000001 0.7804878048780488 0.2195121951219512 0.8888888888888888 0.1111111111111111 0.7804878048780488 0.2195121951219512 0.8888888888888888 0.1111111111111111 0.7804878048780488 0.2195121951219512 0.8888888888888888 0.1111111111111111 0.7804878048780488 0.2195121951219512 0.8888888888888888 0.1111111111111111 0.7804878048780488 0.2195121951219512 0.8888888888888888 0.1111111111111111 0.7804878048780488 0.2195121951219512 0.8888888888888888 0.1111111111111111 0.7804878048780488 0.2195121951219512 0.8888888888888888 0.1111111111111111 0.7804878048780488 0.2195121951219512 0.8888888888888888 0.1111111111111111 0.7804878048780488 0.2195121951219512 0.8888888888888888 0.1111111111111111 0.7804878048780488 0.2195121951219512 0.8888888888888888 0.1111111111111111 0.7804878048780488 0.2195121951219512 0.8888888888888888 0.1111111111111111 0.7804878048780488 0.2195121951219512 0.8888888888888888 0.1111111111111111 0.7804878048780488 0.2195121951219512 0.8888888888888888 0.1111111111111111 0.7804878048780488 0.2195121951219512 0.8888888888888888 0.1111111111111111 0.7804878048780488 0.2195121951219512 0.8888888888888888 0.1111111111111111 0.7804878048780488 0.2195121951219512 0.8888888888888888 0.1111111111111111 0.9204545454545455 0.07954545454545453 0.7500000000000001 0.2499999999999999 0.9204545454545455 0.07954545454545453 0.7500000000000001 0.2499999999999999 0.9204545454545455 0.07954545454545453 0.7500000000000001 0.2499999999999999 0.9204545454545455 0.07954545454545453 0.7500000000000001 0.2499999999999999 0.9204545454545455 0.07954545454545453 0.7500000000000001 0.2499999999999999 0.9204545454545455 0.07954545454545453 0.7500000000000001 0.2499999999999999 0.9204545454545455 0.07954545454545453 0.7500000000000001 0.2499999999999999 0.9204545454545455 0.07954545454545453 0.7500000000000001 0.2499999999999999 0.9204545454545455 0.07954545454545453 0.7500000000000001 0.2499999999999999 0.9204545454545455 0.07954545454545453 0.7500000000000001 0.2499999999999999 0.9204545454545455 0.07954545454545453 0.7500000000000001 0.2499999999999999 0.9204545454545455 0.07954545454545453 0.7500000000000001 0.2499999999999999 0.9204545454545455 0.07954545454545453 0.7500000000000001 0.2499999999999999 0.9204545454545455 0.07954545454545453 0.7500000000000001 0.2499999999999999 0.9204545454545455 0.07954545454545453 0.7500000000000001 0.2499999999999999 0.9204545454545455 0.07954545454545453 0.7500000000000001 0.2499999999999999 0.0898876404494382 0.9101123595505617 0.1818181818181818 0.8181818181818183 0.0898876404494382 0.9101123595505617 0.1818181818181818 0.8181818181818183 0.0898876404494382 0.9101123595505617 0.1818181818181818 0.8181818181818183 0.0898876404494382 0.9101123595505617 0.1818181818181818 0.8181818181818183 0.0898876404494382 0.9101123595505617 0.1818181818181818 0.8181818181818183 0.0898876404494382 0.9101123595505617 0.1818181818181818 0.8181818181818183 0.0898876404494382 0.9101123595505617 0.1818181818181818 0.8181818181818183 0.0898876404494382 0.9101123595505617 0.1818181818181818 0.8181818181818183 0.0898876404494382 0.9101123595505617 0.1818181818181818 0.8181818181818183 0.0898876404494382 0.9101123595505617 0.1818181818181818 0.8181818181818183 0.0898876404494382 0.9101123595505617 0.1818181818181818 0.8181818181818183 0.0898876404494382 0.9101123595505617 0.1818181818181818 0.8181818181818183 0.0898876404494382 0.9101123595505617 0.1818181818181818 0.8181818181818183 0.0898876404494382 0.9101123595505617 0.1818181818181818 0.8181818181818183 0.0898876404494382 0.9101123595505617 0.1818181818181818 0.8181818181818183 0.0898876404494382 0.9101123595505617 0.1818181818181818 0.8181818181818183 0.1111111111111111 0.8888888888888888 0.2195121951219512 0.7804878048780488 0.1111111111111111 0.8888888888888888 0.2195121951219512 0.7804878048780488 0.1111111111111111 0.8888888888888888 0.2195121951219512 0.7804878048780488 0.1111111111111111 0.8888888888888888 0.2195121951219512 0.7804878048780488 0.1111111111111111 0.8888888888888888 0.2195121951219512 0.7804878048780488 0.1111111111111111 0.8888888888888888 0.2195121951219512 0.7804878048780488 0.1111111111111111 0.8888888888888888 0.2195121951219512 0.7804878048780488 0.1111111111111111 0.8888888888888888 0.2195121951219512 0.7804878048780488 0.1111111111111111 0.8888888888888888 0.2195121951219512 0.7804878048780488 0.1111111111111111 0.8888888888888888 0.2195121951219512 0.7804878048780488 0.1111111111111111 0.8888888888888888 0.2195121951219512 0.7804878048780488 0.1111111111111111 0.8888888888888888 0.2195121951219512 0.7804878048780488 0.1111111111111111 0.8888888888888888 0.2195121951219512 0.7804878048780488 0.1111111111111111 0.8888888888888888 0.2195121951219512 0.7804878048780488 0.1111111111111111 0.8888888888888888 0.2195121951219512 0.7804878048780488 0.1111111111111111 0.8888888888888888 0.2195121951219512 0.7804878048780488 0.2432432432432433 0.7567567567567569 0.3333333333333333 0.6666666666666666 0.2432432432432433 0.7567567567567569 0.3333333333333333 0.6666666666666666 0.2432432432432433 0.7567567567567569 0.3333333333333333 0.6666666666666666 0.2432432432432433 0.7567567567567569 0.3333333333333333 0.6666666666666666 0.2432432432432433 0.7567567567567569 0.3333333333333333 0.6666666666666666 0.2432432432432433 0.7567567567567569 0.3333333333333333 0.6666666666666666 0.2432432432432433 0.7567567567567569 0.3333333333333333 0.6666666666666666 0.2432432432432433 0.7567567567567569 0.3333333333333333 0.6666666666666666 0.2432432432432433 0.7567567567567569 0.3333333333333333 0.6666666666666666 0.2432432432432433 0.7567567567567569 0.3333333333333333 0.6666666666666666 0.2432432432432433 0.7567567567567569 0.3333333333333333 0.6666666666666666 0.2432432432432433 0.7567567567567569 0.3333333333333333 0.6666666666666666 0.2432432432432433 0.7567567567567569 0.3333333333333333 0.6666666666666666 0.2432432432432433 0.7567567567567569 0.3333333333333333 0.6666666666666666 0.2432432432432433 0.7567567567567569 0.3333333333333333 0.6666666666666666 0.2432432432432433 0.7567567567567569 0.3333333333333333 0.6666666666666666 0.25 0.75 0.4285714285714286 0.5714285714285714 0.25 0.75 0.4285714285714286 0.5714285714285714 0.25 0.75 0.4285714285714286 0.5714285714285714 0.25 0.75 0.4285714285714286 0.5714285714285714 0.25 0.75 0.4285714285714286 0.5714285714285714 0.25 0.75 0.4285714285714286 0.5714285714285714 0.25 0.75 0.4285714285714286 0.5714285714285714 0.25 0.75 0.4285714285714286 0.5714285714285714 0.25 0.75 0.4285714285714286 0.5714285714285714 0.25 0.75 0.4285714285714286 0.5714285714285714 0.25 0.75 0.4285714285714286 0.5714285714285714 0.25 0.75 0.4285714285714286 0.5714285714285714 0.25 0.75 0.4285714285714286 0.5714285714285714 0.25 0.75 0.4285714285714286 0.5714285714285714 0.25 0.75 0.4285714285714286 0.5714285714285714 0.25 0.75 0.4285714285714286 0.5714285714285714 0.4285714285714285 0.5714285714285715 0.5384615384615385 0.4615384615384616 0.4285714285714285 0.5714285714285715 0.5384615384615385 0.4615384615384616 0.4285714285714285 0.5714285714285715 0.5384615384615385 0.4615384615384616 0.4285714285714285 0.5714285714285715 0.5384615384615385 0.4615384615384616 0.4285714285714285 0.5714285714285715 0.5384615384615385 0.4615384615384616 0.4285714285714285 0.5714285714285715 0.5384615384615385 0.4615384615384616 0.4285714285714285 0.5714285714285715 0.5384615384615385 0.4615384615384616 0.4285714285714285 0.5714285714285715 0.5384615384615385 0.4615384615384616 0.4285714285714285 0.5714285714285715 0.5384615384615385 0.4615384615384616 0.4285714285714285 0.5714285714285715 0.5384615384615385 0.4615384615384616 0.4285714285714285 0.5714285714285715 0.5384615384615385 0.4615384615384616 0.4285714285714285 0.5714285714285715 0.5384615384615385 0.4615384615384616 0.4285714285714285 0.5714285714285715 0.5384615384615385 0.4615384615384616 0.4285714285714285 0.5714285714285715 0.5384615384615385 0.4615384615384616 0.4285714285714285 0.5714285714285715 0.5384615384615385 0.4615384615384616 0.4285714285714285 0.5714285714285715 0.5384615384615385 0.4615384615384616 0.5555555555555556 0.4444444444444444 0.6521739130434782 0.3478260869565218 0.5555555555555556 0.4444444444444444 0.6521739130434782 0.3478260869565218 0.5555555555555556 0.4444444444444444 0.6521739130434782 0.3478260869565218 0.5555555555555556 0.4444444444444444 0.6521739130434782 0.3478260869565218 0.5555555555555556 0.4444444444444444 0.6521739130434782 0.3478260869565218 0.5555555555555556 0.4444444444444444 0.6521739130434782 0.3478260869565218 0.5555555555555556 0.4444444444444444 0.6521739130434782 0.3478260869565218 0.5555555555555556 0.4444444444444444 0.6521739130434782 0.3478260869565218 0.5555555555555556 0.4444444444444444 0.6521739130434782 0.3478260869565218 0.5555555555555556 0.4444444444444444 0.6521739130434782 0.3478260869565218 0.5555555555555556 0.4444444444444444 0.6521739130434782 0.3478260869565218 0.5555555555555556 0.4444444444444444 0.6521739130434782 0.3478260869565218 0.5555555555555556 0.4444444444444444 0.6521739130434782 0.3478260869565218 0.5555555555555556 0.4444444444444444 0.6521739130434782 0.3478260869565218 0.5555555555555556 0.4444444444444444 0.6521739130434782 0.3478260869565218 0.5555555555555556 0.4444444444444444 0.6521739130434782 0.3478260869565218 0.6712328767123288 0.3287671232876713 0.7777777777777779 0.2222222222222222 0.6712328767123288 0.3287671232876713 0.7777777777777779 0.2222222222222222 0.6712328767123288 0.3287671232876713 0.7777777777777779 0.2222222222222222 0.6712328767123288 0.3287671232876713 0.7777777777777779 0.2222222222222222 0.6712328767123288 0.3287671232876713 0.7777777777777779 0.2222222222222222 0.6712328767123288 0.3287671232876713 0.7777777777777779 0.2222222222222222 0.6712328767123288 0.3287671232876713 0.7777777777777779 0.2222222222222222 0.6712328767123288 0.3287671232876713 0.7777777777777779 0.2222222222222222 0.6712328767123288 0.3287671232876713 0.7777777777777779 0.2222222222222222 0.6712328767123288 0.3287671232876713 0.7777777777777779 0.2222222222222222 0.6712328767123288 0.3287671232876713 0.7777777777777779 0.2222222222222222 0.6712328767123288 0.3287671232876713 0.7777777777777779 0.2222222222222222 0.6712328767123288 0.3287671232876713 0.7777777777777779 0.2222222222222222 0.6712328767123288 0.3287671232876713 0.7777777777777779 0.2222222222222222 0.6712328767123288 0.3287671232876713 0.7777777777777779 0.2222222222222222 0.6712328767123288 0.3287671232876713 0.7777777777777779 0.2222222222222222 0.7692307692307693 0.2307692307692308 0.8333333333333333 0.1666666666666667 0.7692307692307693 0.2307692307692308 0.8333333333333333 0.1666666666666667 0.7692307692307693 0.2307692307692308 0.8333333333333333 0.1666666666666667 0.7692307692307693 0.2307692307692308 0.8333333333333333 0.1666666666666667 0.7692307692307693 0.2307692307692308 0.8333333333333333 0.1666666666666667 0.7692307692307693 0.2307692307692308 0.8333333333333333 0.1666666666666667 0.7692307692307693 0.2307692307692308 0.8333333333333333 0.1666666666666667 0.7692307692307693 0.2307692307692308 0.8333333333333333 0.1666666666666667 0.7692307692307693 0.2307692307692308 0.8333333333333333 0.1666666666666667 0.7692307692307693 0.2307692307692308 0.8333333333333333 0.1666666666666667 0.7692307692307693 0.2307692307692308 0.8333333333333333 0.1666666666666667 0.7692307692307693 0.2307692307692308 0.8333333333333333 0.1666666666666667 0.7692307692307693 0.2307692307692308 0.8333333333333333 0.1666666666666667 0.7692307692307693 0.2307692307692308 0.8333333333333333 0.1666666666666667 0.7692307692307693 0.2307692307692308 0.8333333333333333 0.1666666666666667 0.7692307692307693 0.2307692307692308 0.8333333333333333 0.1666666666666667 0.887323943661972 0.1126760563380282 0.9310344827586207 0.06896551724137931 0.887323943661972 0.1126760563380282 0.9310344827586207 0.06896551724137931 0.887323943661972 0.1126760563380282 0.9310344827586207 0.06896551724137931 0.887323943661972 0.1126760563380282 0.9310344827586207 0.06896551724137931 0.887323943661972 0.1126760563380282 0.9310344827586207 0.06896551724137931 0.887323943661972 0.1126760563380282 0.9310344827586207 0.06896551724137931 0.887323943661972 0.1126760563380282 0.9310344827586207 0.06896551724137931 0.887323943661972 0.1126760563380282 0.9310344827586207 0.06896551724137931 0.887323943661972 0.1126760563380282 0.9310344827586207 0.06896551724137931 0.887323943661972 0.1126760563380282 0.9310344827586207 0.06896551724137931 0.887323943661972 0.1126760563380282 0.9310344827586207 0.06896551724137931 0.887323943661972 0.1126760563380282 0.9310344827586207 0.06896551724137931 0.887323943661972 